#ifndef MNIST_WEIGHTS_FLOAT_H
#define MNIST_WEIGHTS_FLOAT_H

#define INPUT_SIZE 784
#define HIDDEN_SIZE 32
#define OUTPUT_SIZE 10
#define NUM_TEST_IMAGES 10

static const float weight1[25088] = {
    -0.04551416f, -0.02499875f, 0.06208580f, -0.00125609f, -0.07175875f, 0.05485470f, 0.05454563f, -0.01302520f,
    0.04630607f, -0.05230338f, 0.04788163f, -0.05008516f, 0.09350644f, -0.00816082f, -0.19878177f, -0.05945581f,
    0.03894449f, -0.06525786f, 0.01829159f, 0.00418624f, -0.03418240f, -0.00732668f, -0.06603143f, 0.01021110f,
    0.02279713f, 0.06257691f, -0.03133210f, 0.08061364f, 0.03907596f, 0.02603728f, -0.01941431f, -0.00330552f,
    -0.03267332f, -0.05664820f, -0.03501215f, -0.08224810f, 0.01814569f, 0.22087730f, 0.16414373f, 0.28830954f,
    0.23313190f, 0.31558138f, 0.11366604f, -0.03784848f, -0.22266500f, -0.00643346f, 0.26640698f, 0.15318136f,
    0.16066051f, 0.32664099f, 0.10330731f, -0.03208116f, -0.04049424f, 0.01385072f, -0.07752661f, 0.01636560f,
    0.05596770f, 0.00605313f, -0.00811801f, -0.21345773f, 0.04153547f, 0.13693778f, 0.09338807f, 0.03557759f,
    -0.05167451f, -0.31683856f, -0.15653567f, 0.13606334f, -0.05434532f, -0.02541975f, 0.18123923f, 0.00377904f,
    0.03496528f, 0.20256810f, 0.11209720f, 0.11943918f, 0.04084893f, 0.19440614f, 0.38271919f, -0.13999081f,
    -0.10806583f, -0.09384699f, -0.05397269f, -0.08186617f, 0.06755029f, 0.07238435f, -0.01517133f, -0.14967372f,
    -0.09248220f, 0.15555738f, -0.03213763f, 0.08068684f, 0.17914064f, -0.22027239f, 0.09958492f, 0.21901782f,
    0.01624812f, -0.13542984f, 0.01472955f, -0.02235637f, 0.01110409f, 0.17861837f, 0.17530513f, 0.06854166f,
    0.25005123f, 0.28542545f, 0.28351238f, 0.56970364f, 0.04113743f, -0.14890744f, 0.02797859f, 0.00204281f,
    -0.07107615f, 0.14382239f, 0.03897765f, 0.33022612f, 0.26550943f, -0.07689847f, -0.09255765f, -0.06691580f,
    0.09002440f, -0.01509954f, 0.03073571f, 0.04121639f, 0.04628503f, -0.02643657f, -0.06234843f, -0.09988353f,
    0.06922759f, 0.05817113f, -0.07463676f, 0.12489438f, 0.12543361f, 0.32067761f, 0.19101192f, 0.11649903f,
    0.32022652f, 0.17617096f, 0.12465454f, 0.34464318f, -0.00318594f, -0.06995012f, -0.05292709f, 0.23397373f,
    -0.00954434f, -0.04617385f, 0.00594164f, 0.10608047f, -0.08769255f, 0.03839006f, -0.02771347f, -0.11501872f,
    -0.04177749f, -0.11685119f, 0.08825979f, -0.00394360f, -0.02693070f, 0.00006140f, -0.08317396f, 0.08207458f,
    0.03648210f, -0.00975276f, -0.12475005f, 0.03545739f, 0.28706914f, 0.38451543f, 0.31891039f, 0.24425772f,
    -0.00189263f, -0.06961162f, 0.32719707f, 0.03993085f, 0.02046142f, 0.14423706f, -0.06586752f, -0.05640562f,
    -0.03934689f, 0.04805320f, -0.15345730f, -0.08901171f, 0.03031583f, -0.03000372f, -0.11520837f, -0.04251990f,
    -0.14567919f, 0.00488094f, -0.08010336f, -0.01446092f, 0.10015133f, 0.01217449f, -0.05480656f, 0.20912446f,
    0.17257886f, 0.02009759f, 0.11749275f, 0.04457909f, -0.03863702f, 0.24465646f, 0.27625301f, -0.03661310f,
    0.08559740f, 0.14452451f, -0.11781269f, 0.05904369f, -0.01901327f, 0.16654420f, 0.04648949f, 0.04548928f,
    0.09593092f, 0.17425160f, 0.00112207f, 0.03268977f, -0.09761683f, -0.03779386f, 0.01117550f, -0.06379148f,
    -0.08028958f, -0.06803893f, 0.01773467f, 0.17748930f, -0.01858533f, -0.25094035f, -0.06610149f, 0.12497441f,
    -0.03962554f, 0.26088390f, 0.31145239f, 0.17794138f, 0.15209666f, 0.03902487f, -0.05721773f, 0.03438151f,
    0.09578454f, 0.12992325f, 0.14478888f, 0.12774707f, 0.17590457f, 0.04410421f, -0.05260518f, 0.00927470f,
    -0.02183821f, 0.03910509f, 0.01079010f, -0.06106899f, -0.03395798f, -0.01221569f, -0.02001329f, -0.02416551f,
    -0.12469144f, -0.20292063f, 0.14008273f, -0.04189867f, 0.01546888f, 0.33638197f, 0.34843552f, 0.06151548f,
    0.12829706f, -0.11323404f, 0.02459920f, 0.12524500f, 0.19297880f, 0.09464587f, 0.00174733f, 0.12059589f,
    0.05654179f, -0.00165965f, -0.09283059f, -0.00885450f, 0.03284310f, -0.02942963f, 0.00325947f, -0.04976189f,
    0.02245072f, 0.01900198f, -0.25598323f, -0.14069054f, -0.34722871f, -0.24147674f, -0.04463246f, -0.25492901f,
    -0.00346883f, 0.23194079f, 0.20074719f, 0.14059226f, 0.07254548f, -0.18352780f, -0.12597081f, 0.05264220f,
    0.00135214f, 0.14741130f, 0.13018671f, -0.01985309f, -0.07419652f, -0.13613588f, -0.24233764f, 0.02163080f,
    0.12982047f, 0.13620611f, -0.02048022f, -0.04737296f, 0.10058440f, -0.16916433f, -0.12512945f, -0.07930376f,
    -0.37100571f, -0.23532403f, -0.43588454f, -0.05851208f, 0.02336700f, 0.13373287f, 0.12593542f, 0.42080775f,
    0.01419743f, -0.02547199f, -0.09468334f, -0.00063854f, 0.07500118f, 0.22646469f, 0.16315888f, 0.11961649f,
    0.01902098f, -0.07571694f, -0.02823825f, 0.02802453f, 0.08254564f, -0.04100665f, -0.01525924f, -0.03599783f,
    -0.09312510f, -0.24199590f, 0.02565221f, -0.39240992f, -0.54571813f, -0.39714193f, -0.29100817f, -0.05623067f,
    -0.06372489f, 0.02295623f, 0.15088560f, 0.10208049f, -0.18270288f, -0.21843359f, -0.15582754f, 0.01602245f,
    -0.03934313f, 0.11171951f, 0.14920746f, 0.12267110f, 0.10317940f, 0.06661390f, -0.01081789f, 0.10044162f,
    0.10387284f, -0.05602327f, 0.02168867f, -0.09183525f, -0.00484644f, -0.14248264f, -0.07796096f, -0.32180354f,
    -0.19401401f, -0.40212089f, -0.40768692f, -0.06908691f, -0.06153996f, 0.15194988f, 0.08963589f, 0.02946319f,
    -0.12966335f, -0.19396065f, -0.00958778f, 0.00515893f, 0.05004098f, 0.13914901f, 0.21827230f, 0.12310688f,
    0.03039277f, -0.12436916f, -0.07463762f, 0.11493534f, -0.01191821f, 0.02617764f, 0.10668367f, -0.05866960f,
    -0.07454354f, -0.06706277f, -0.06774396f, -0.20368452f, -0.47570744f, -0.22607380f, -0.37267894f, -0.23622094f,
    -0.02215825f, 0.24169374f, 0.21487974f, 0.00291107f, -0.12293179f, 0.05573750f, -0.17696282f, -0.05024108f,
    0.04910184f, 0.24700847f, 0.17243254f, 0.18305434f, 0.17085071f, 0.00479112f, -0.06642667f, 0.07802791f,
    0.03901961f, 0.05666897f, 0.08758133f, 0.12814432f, -0.02508235f, 0.13916501f, -0.07852282f, -0.08815841f,
    -0.15245986f, -0.22090648f, -0.51247215f, -0.18961678f, 0.04839152f, 0.07102478f, 0.30009425f, 0.25672960f,
    -0.08555013f, -0.20487143f, -0.08915795f, -0.08576506f, -0.03040353f, 0.08835867f, 0.16627264f, 0.23922978f,
    0.11653595f, -0.05996062f, 0.02632332f, 0.13873631f, 0.03253654f, 0.15852991f, 0.11310264f, 0.01616873f,
    0.23284616f, 0.09760465f, 0.22135530f, 0.02245507f, -0.26991004f, -0.19773497f, -0.12344126f, -0.20819733f,
    0.01161583f, 0.18401173f, 0.18761796f, 0.03528567f, -0.15235253f, -0.22678748f, -0.14755099f, 0.09822505f,
    0.21134754f, 0.23351768f, 0.27688593f, 0.16074921f, 0.12019806f, 0.09028608f, 0.03861050f, 0.07145361f,
    0.01738852f, 0.01492399f, 0.08221057f, 0.16668892f, 0.25253275f, 0.15382518f, 0.02235034f, -0.02131690f,
    -0.17935888f, -0.31588152f, -0.30091283f, -0.26682091f, 0.00191937f, 0.23532566f, 0.09874456f, -0.05475013f,
    -0.05567073f, -0.13929656f, -0.12480731f, 0.00684314f, -0.06315602f, 0.15836646f, 0.14146931f, 0.19009905f,
    0.05575701f, 0.11891790f, 0.03117182f, -0.01191530f, -0.05435206f, 0.07628089f, 0.06415898f, 0.16916612f,
    0.20131992f, 0.23501356f, 0.12578870f, 0.11330558f, -0.20758523f, -0.29265100f, -0.16249754f, -0.37110424f,
    -0.12661943f, 0.06096699f, 0.16001125f, -0.00270467f, -0.18626103f, -0.10899847f, -0.16868004f, -0.19733730f,
    -0.13345820f, -0.09161513f, -0.12261470f, 0.12925737f, 0.14384067f, 0.14191243f, -0.12662786f, -0.07699469f,
    -0.05886200f, 0.01806181f, -0.05737629f, 0.09132843f, 0.24843244f, 0.10677377f, -0.02562376f, -0.10816143f,
    -0.53721219f, -0.34065357f, 0.13814458f, -0.36720440f, 0.00485813f, 0.19729361f, -0.02907957f, -0.02076776f,
    -0.22554642f, -0.08944249f, -0.23268402f, -0.21045321f, -0.11373933f, -0.21194744f, -0.06777465f, 0.02246198f,
    0.02436690f, -0.10612600f, -0.14408708f, -0.17667447f, -0.03707689f, -0.05974341f, 0.10285753f, 0.20167769f,
    0.08176526f, 0.03163815f, -0.10651515f, -0.22455747f, -0.45017910f, -0.54419237f, -0.19804245f, -0.22211587f,
    -0.00839049f, 0.23407283f, -0.00345879f, 0.08754750f, -0.19140379f, -0.30325565f, -0.35328731f, -0.26874506f,
    -0.21031024f, -0.17175260f, -0.16935638f, -0.19864742f, -0.19981645f, -0.16753253f, -0.11685046f, -0.01367223f,
    -0.08832175f, 0.02654722f, 0.12914462f, 0.14333147f, 0.11202031f, -0.01975640f, -0.09427940f, -0.22262208f,
    -0.31987864f, -0.28278100f, -0.16568245f, 0.00631847f, -0.09232837f, 0.04822973f, 0.20203418f, 0.05969831f,
    0.04969407f, -0.24103421f, -0.12732714f, -0.17389011f, -0.16175544f, -0.12471041f, -0.21442564f, -0.12406354f,
    -0.15282805f, -0.10064334f, -0.04249573f, 0.00919899f, 0.15706354f, 0.05803565f, 0.07076124f, 0.13778220f,
    0.12784629f, -0.06379609f, -0.04952882f, -0.22863838f, -0.28265828f, -0.30711144f, 0.12703991f, 0.07287278f,
    -0.07847538f, -0.04405365f, 0.14624022f, 0.05973526f, 0.21946293f, -0.01332984f, 0.00874709f, -0.08486762f,
    -0.10162742f, -0.20075221f, -0.19021483f, -0.02176275f, -0.06329107f, -0.05645413f, 0.07347232f, 0.20878462f,
    0.10611862f, 0.13756062f, -0.04886008f, 0.10897741f, 0.08515471f, -0.15113743f, -0.01873701f, -0.11477730f,
    -0.28838289f, -0.00544577f, 0.39171794f, 0.02956039f, 0.02010413f, 0.02808006f, 0.23485844f, 0.27874830f,
    0.29099175f, 0.30104646f, 0.28368148f, 0.09413906f, -0.11722276f, -0.07350650f, -0.03835039f, -0.00332014f,
    -0.04157333f, 0.16563663f, 0.14522943f, 0.13869560f, 0.13622123f, 0.02667141f, 0.18130571f, 0.11565229f,
    -0.06132979f, -0.14286214f, -0.28828597f, -0.10526267f, -0.13618076f, -0.05336500f, 0.26476219f, 0.02735286f,
    -0.06114387f, 0.02213179f, 0.12450193f, 0.36703146f, 0.40296480f, 0.08899344f, 0.29017764f, 0.08151709f,
    0.04527874f, -0.01350564f, 0.13121913f, 0.28370637f, 0.18356714f, 0.26983422f, 0.24679181f, 0.18248862f,
    0.23492658f, 0.03163213f, -0.07842255f, -0.07759567f, 0.04500236f, -0.10897839f, -0.06860530f, -0.15934949f,
    -0.43191496f, -0.15928259f, -0.16038238f, -0.02400939f, 0.03284228f, -0.05038710f, -0.10222325f, -0.00816846f,
    0.16598150f, 0.03794480f, 0.07294171f, 0.06022052f, 0.08837052f, 0.00035804f, 0.28453985f, 0.39100721f,
    0.13706368f, 0.21240307f, 0.00612312f, 0.12535571f, 0.12485751f, -0.03231358f, 0.02319719f, 0.07677354f,
    -0.05889821f, -0.19753370f, -0.01431915f, -0.02315223f, -0.06047666f, -0.04255679f, -0.19854794f, 0.04257569f,
    0.00249816f, 0.07836621f, 0.05749411f, 0.01235257f, -0.28943092f, -0.14878857f, -0.06853721f, -0.11520194f,
    -0.01331880f, -0.28532833f, 0.01518601f, -0.02310320f, -0.00667516f, 0.02379014f, -0.21487565f, -0.14706093f,
    -0.05492746f, -0.03668022f, -0.08216789f, -0.12853672f, -0.31039819f, -0.11990312f, -0.23100793f, -0.23587973f,
    -0.24675508f, -0.00290716f, -0.02177277f, 0.07387928f, -0.03568805f, 0.07241067f, 0.01502561f, 0.06007557f,
    0.04761748f, 0.03571870f, -0.06270214f, -0.22826262f, -0.14930697f, 0.02085151f, 0.04920555f, -0.21931352f,
    -0.25310281f, 0.09617322f, -0.18494184f, -0.07796435f, -0.06828383f, -0.01684868f, -0.23114602f, -0.23322314f,
    -0.09353828f, 0.16929676f, -0.06260398f, -0.02338257f, -0.03543364f, -0.06102666f, 0.05420790f, 0.04787680f,
    -0.02342450f, -0.08480076f, 0.08481387f, 0.06869278f, -0.05467372f, -0.00618992f, 0.03351095f, 0.00497367f,
    0.05118700f, 0.02848902f, 0.05238227f, -0.07636159f, -0.08154196f, 0.00275661f, 0.27138257f, 0.08071704f,
    0.00083208f, 0.05976468f, -0.04542956f, 0.04678898f, -0.06764199f, -0.00905616f, -0.00713610f, -0.07161550f,
    -0.01100560f, -0.07196972f, -0.03190260f, -0.02276440f, 0.05669618f, -0.03913652f, 0.08245554f, 0.01045626f,
    0.00716761f, 0.04769510f, -0.10713837f, -0.05250549f, -0.10783970f, -0.00940542f, -0.20725580f, -0.15039733f,
    -0.08282112f, -0.09430392f, 0.08135743f, -0.03878865f, -0.21362044f, -0.17404754f, 0.00744789f, -0.14968289f,
    -0.17842290f, -0.14630975f, -0.03366589f, -0.04797664f, 0.03342974f, -0.02058607f, -0.05568512f, 0.01552501f,
    0.02782733f, 0.00362472f, -0.07578268f, 0.00877091f, -0.23059058f, -0.06793779f, -0.06000079f, -0.17648028f,
    -0.21162342f, -0.16092709f, -0.28044930f, -0.20250912f, -0.08509717f, -0.00832040f, 0.00120331f, 0.38332140f,
    0.23231901f, 0.02206324f, -0.18387580f, -0.13848892f, 0.02866728f, -0.16916408f, -0.04204810f, -0.14667521f,
    0.03315292f, -0.06217339f, 0.04830316f, 0.06351963f, -0.02164581f, 0.01837813f, 0.04255272f, -0.00142705f,
    -0.10759163f, -0.12614284f, -0.14930144f, -0.35609725f, -0.32293928f, -0.16186200f, -0.08805525f, -0.27578592f,
    -0.09677730f, -0.03120192f, -0.01184625f, 0.09263553f, 0.04832185f, 0.14797658f, -0.08241341f, -0.14382017f,
    -0.23972812f, -0.24061759f, -0.20219862f, -0.00044983f, -0.23084983f, -0.15521321f, -0.17470618f, 0.07594619f,
    -0.08359183f, -0.00764333f, 0.02567627f, -0.19648419f, -0.02538623f, 0.17109182f, 0.09320915f, 0.01100114f,
    0.03324090f, -0.00119987f, 0.11317332f, 0.03462940f, 0.01071895f, 0.01520543f, 0.11916033f, 0.16176091f,
    0.07615319f, 0.00016349f, 0.07753790f, 0.01487709f, -0.06007772f, -0.17150086f, -0.08338598f, -0.36944240f,
    -0.34872153f, -0.36465505f, -0.10408338f, -0.20285723f, 0.03183006f, 0.08199332f, 0.10949004f, 0.19209433f,
    0.28821075f, 0.20372069f, 0.24695104f, -0.02491369f, -0.26576138f, -0.14438762f, -0.02361138f, -0.18171623f,
    -0.14912468f, -0.15860862f, -0.09407247f, 0.11609662f, 0.03782544f, 0.08273362f, 0.15057136f, -0.06465071f,
    -0.14631481f, -0.05367442f, 0.01445838f, -0.02628972f, -0.17313433f, -0.11416529f, -0.30393824f, -0.15341282f,
    0.08166213f, -0.00160744f, -0.46135190f, 0.13365170f, -0.03244478f, -0.11913242f, -0.09825659f, -0.11863331f,
    -0.10544367f, -0.13164383f, -0.00153392f, -0.09651405f, -0.13532361f, -0.17514353f, -0.08186797f, -0.02819519f,
    0.07085163f, 0.10260195f, 0.09470081f, -0.15485866f, -0.15580660f, -0.06238012f, -0.20066851f, -0.19350450f,
    -0.20988216f, 0.04191397f, -0.10007855f, -0.11003357f, -0.03521913f, -0.29199582f, -0.47770998f, -0.00014269f,
    0.15925395f, -0.07290911f, -0.11605611f, -0.06850426f, -0.04547033f, -0.01415413f, -0.04900536f, -0.05402758f,
    -0.15243614f, -0.18103428f, -0.10345758f, -0.08878133f, 0.18709891f, 0.09071870f, 0.00724826f, 0.04450760f,
    -0.01081224f, -0.27616528f, -0.25448361f, -0.42913443f, -0.42245665f, -0.26988047f, -0.21364237f, -0.13425726f,
    -0.00310329f, -0.20829001f, -0.01486067f, -0.00975374f, 0.08686109f, 0.04888715f, 0.08504159f, -0.06083451f,
    0.08103032f, -0.01710989f, -0.01883321f, -0.17761751f, -0.22722274f, -0.31256717f, -0.23546739f, 0.03677224f,
    0.07332370f, 0.24683081f, 0.04589250f, 0.02265485f, -0.10960995f, -0.19562794f, -0.31308582f, -0.45333666f,
    -0.47105464f, -0.32425800f, -0.14323550f, -0.07598226f, 0.04169418f, -0.19081672f, 0.04217528f, 0.03243996f,
    0.01194237f, 0.06079092f, -0.13659213f, 0.03191813f, 0.10389751f, -0.06898292f, -0.08812167f, -0.00665234f,
    -0.14610122f, -0.11463916f, -0.14576498f, 0.28144145f, 0.33998960f, 0.39303309f, 0.22177526f, -0.00140645f,
    -0.25219959f, -0.31663457f, -0.24103765f, -0.33421722f, -0.43741024f, -0.43543589f, -0.09688370f, -0.23203982f,
    -0.01117814f, -0.08804411f, -0.12841360f, 0.12604086f, 0.04971040f, -0.06970534f, -0.09907559f, -0.16347313f,
    -0.03563255f, -0.10457526f, 0.00873769f, -0.02606240f, 0.10276359f, -0.18841115f, -0.03946236f, 0.27631792f,
    0.40520045f, 0.34214255f, 0.25972864f, -0.05222698f, -0.34754238f, -0.37296021f, -0.38926700f, -0.37651518f,
    -0.41875917f, -0.15186904f, 0.06245996f, -0.03329909f, -0.11782624f, 0.01112818f, -0.23326938f, -0.01690990f,
    -0.07168277f, -0.18767950f, -0.04654895f, 0.05583587f, 0.01314138f, -0.03984166f, 0.04006648f, 0.05375452f,
    0.06745348f, -0.17554808f, 0.06205211f, 0.32976505f, 0.33946180f, 0.34799096f, 0.29382402f, -0.02962057f,
    -0.23938352f, -0.24931979f, -0.36829075f, -0.47007784f, -0.50445217f, -0.25914323f, 0.09992065f, -0.07112000f,
    0.05031573f, -0.09191521f, -0.21788533f, -0.06178859f, -0.03547375f, -0.04670805f, -0.04491059f, 0.07958283f,
    -0.05622876f, 0.03772074f, 0.14083761f, 0.02141984f, -0.03419103f, 0.06912477f, 0.07052964f, 0.26888716f,
    0.28309199f, 0.17824626f, 0.15989684f, -0.08492597f, -0.32545069f, -0.22207792f, -0.38995785f, -0.27054656f,
    0.05927669f, -0.15925209f, -0.17787215f, -0.10535771f, 0.00654966f, -0.09278031f, -0.17828149f, -0.02951114f,
    0.03165215f, -0.04157072f, -0.03531925f, 0.03754518f, 0.06990223f, 0.07641072f, 0.03023489f, 0.05338408f,
    -0.02858628f, 0.02870065f, 0.17712677f, 0.18635695f, 0.27049711f, 0.27702767f, 0.15716080f, 0.02616244f,
    -0.19412516f, -0.11955901f, -0.07169397f, -0.17407399f, -0.17535639f, -0.08957471f, 0.16107140f, -0.10222375f,
    -0.02333030f, -0.10045354f, -0.29405931f, 0.00459696f, 0.09759736f, -0.01325007f, -0.00481858f, 0.12994915f,
    0.07800452f, 0.05202850f, -0.13761772f, -0.06432483f, -0.05277194f, 0.05116815f, 0.16920294f, 0.16270459f,
    0.27852711f, 0.15237479f, 0.04425541f, -0.16732763f, -0.16304912f, 0.02747854f, 0.02971918f, -0.06683332f,
    0.08080668f, 0.38526502f, 0.15534793f, -0.05676830f, -0.06310359f, 0.10030022f, 0.20734820f, 0.08314251f,
    0.20674640f, -0.10556657f, -0.10613048f, -0.04148276f, 0.03592607f, -0.02242391f, -0.16157384f, -0.08810867f,
    -0.06776202f, 0.03346577f, 0.18339069f, 0.13894746f, 0.31030297f, 0.04116964f, -0.12453947f, -0.19246076f,
    -0.17763698f, -0.05156609f, -0.07595222f, 0.14315420f, 0.08786384f, 0.42968011f, 0.35896495f, 0.07165705f,
    0.10232195f, 0.15551700f, 0.27996626f, -0.15566984f, -0.04509572f, -0.29012918f, -0.06535302f, -0.02122790f,
    0.03009246f, -0.00507398f, -0.02161477f, -0.04513256f, -0.00218208f, 0.14383608f, 0.10018184f, 0.01496453f,
    0.05743958f, -0.08150395f, -0.22235534f, -0.20820121f, -0.21327820f, -0.30233681f, -0.23210897f, 0.09283292f,
    0.24570183f, 0.32366890f, 0.41994810f, -0.10925172f, -0.08002734f, 0.13817285f, 0.20290928f, -0.23391581f,
    -0.15425734f, -0.19861758f, 0.00848029f, 0.06361700f, 0.14586078f, 0.03514902f, 0.06903656f, -0.07462157f,
    0.05541071f, 0.04490890f, 0.07520910f, 0.00246694f, -0.02669598f, -0.25727379f, -0.21123798f, -0.34383932f,
    -0.32098618f, -0.16614795f, -0.05790261f, 0.06137466f, -0.09192617f, -0.08684190f, -0.10344613f, -0.21140333f,
    0.02895173f, -0.01246139f, -0.01079135f, -0.05166156f, -0.23290242f, 0.03050973f, -0.09271766f, -0.12820564f,
    0.05619670f, 0.09700057f, 0.08167864f, 0.07246497f, 0.03528564f, 0.00030004f, -0.16054069f, -0.15986267f,
    -0.19574291f, -0.10047279f, -0.08157896f, -0.16002950f, -0.07239786f, -0.03210760f, -0.14269400f, -0.12238951f,
    -0.11000393f, -0.10786677f, -0.17116748f, 0.27670199f, 0.00683417f, 0.04442713f, -0.15380344f, 0.40115649f,
    -0.00250693f, -0.01332380f, -0.19266221f, 0.13560198f, 0.00225579f, 0.04509972f, -0.07818194f, -0.14303832f,
    -0.07028888f, -0.09821078f, -0.23772706f, -0.03412029f, 0.09852199f, 0.02383032f, 0.08711739f, 0.02060583f,
    0.07490632f, -0.06887997f, -0.11178141f, -0.11809458f, -0.10343382f, 0.05227392f, 0.16275382f, 0.15525496f,
    -0.08374304f, -0.02727681f, -0.14896275f, 0.45568535f, 0.13195837f, -0.29998341f, 0.00595349f, 0.05447119f,
    0.07837726f, -0.05855781f, -0.05522859f, -0.09302466f, -0.02683981f, -0.16090737f, -0.07572871f, -0.15559991f,
    0.18695590f, 0.20094334f, 0.33345053f, 0.09227228f, 0.03131736f, 0.00855448f, 0.11720297f, -0.07702914f,
    0.24144939f, 0.10525849f, 0.14469285f, -0.07643440f, 0.12826899f, 0.15874863f, -0.09457441f, 0.30192858f,
    0.11180862f, 0.12252887f, 0.08192245f, 0.02893895f, 0.19557153f, 0.05076427f, 0.03500412f, -0.11079952f,
    0.03290642f, -0.12393044f, -0.17644837f, -0.03807442f, 0.04173744f, 0.08418395f, 0.24729402f, 0.10595671f,
    0.10756551f, 0.03043417f, -0.07252748f, -0.08364761f, 0.13534459f, 0.10574450f, -0.25843313f, 0.07399601f,
    0.11100028f, 0.12817529f, 0.02462028f, 0.24573013f, 0.02542149f, 0.41306266f, 0.16248961f, 0.12630092f,
    0.06576820f, -0.00935161f, -0.00604924f, 0.00261341f, -0.10568442f, -0.10618219f, -0.09051284f, -0.17207877f,
    -0.11041186f, -0.08395240f, 0.18445672f, 0.10048617f, 0.22374699f, 0.24941479f, 0.04821762f, -0.07439990f,
    0.04371814f, 0.19337818f, 0.05529868f, 0.06465028f, -0.04490081f, -0.05245252f, 0.20734075f, 0.15603942f,
    -0.29590163f, 0.02946743f, 0.11809080f, 0.21189183f, 0.11135429f, -0.02600055f, 0.02843008f, 0.01132826f,
    0.02769817f, 0.07619413f, -0.05362802f, -0.11916421f, -0.18931708f, 0.07075828f, 0.16174230f, 0.16107194f,
    0.13407981f, 0.32481191f, 0.13637276f, 0.01363743f, 0.18863596f, 0.30336249f, 0.14233746f, -0.07949080f,
    -0.04404790f, 0.06301791f, 0.17301582f, -0.14036591f, -0.11920934f, -0.07398061f, 0.09749470f, 0.11162265f,
    0.04733537f, -0.01704794f, 0.04204778f, 0.03635883f, -0.11594135f, -0.15449658f, -0.07237377f, -0.08871442f,
    -0.06219404f, -0.00410491f, 0.12392039f, 0.14878564f, 0.18856595f, 0.33749223f, 0.20094183f, 0.15875761f,
    0.04459530f, 0.22062545f, 0.09924908f, 0.01476762f, -0.05060252f, -0.03322986f, 0.08591391f, -0.26990095f,
    -0.10678526f, -0.17227817f, -0.26422957f, -0.07526747f, 0.03217281f, 0.02632133f, -0.04324515f, -0.11858732f,
    -0.20147599f, 0.05385657f, -0.05094868f, -0.17668998f, -0.04958596f, -0.13267012f, -0.08311778f, -0.19625363f,
    0.05740335f, 0.06505204f, -0.06323666f, 0.03111709f, 0.04392990f, 0.11933686f, -0.02898346f, 0.00559730f,
    -0.07378493f, -0.02801848f, -0.04581270f, -0.00773399f, 0.25921217f, -0.09672841f, -0.12718983f, 0.06348937f,
    -0.05562063f, -0.06779291f, 0.05856805f, -0.15110400f, -0.16318795f, -0.20874724f, -0.03823468f, -0.08198614f,
    -0.15303575f, -0.07764152f, -0.07634623f, -0.22831281f, 0.07164808f, 0.00151779f, -0.12373170f, 0.29960129f,
    0.16189790f, -0.03358566f, -0.00574984f, 0.06399994f, 0.00854751f, 0.07826825f, 0.02870750f, 0.01581332f,
    -0.07110285f, -0.21232124f, -0.14180700f, -0.05168121f, 0.04620121f, -0.02752006f, -0.25416303f, -0.04415516f,
    0.06471884f, -0.20781244f, -0.04608100f, 0.18463778f, 0.00737198f, -0.19320597f, 0.10342606f, -0.02202778f,
    -0.09256562f, -0.26367536f, -0.27842432f, -0.09157636f, 0.03551180f, 0.03194610f, -0.00886885f, -0.07243730f,
    0.06744512f, 0.05838042f, -0.01282340f, -0.08369780f, 0.04137517f, -0.05970652f, -0.04057487f, 0.06172890f,
    -0.00771050f, 0.01025646f, 0.05231064f, 0.00047480f, 0.02166975f, -0.02507948f, -0.04471333f, -0.00928378f,
    -0.04139913f, 0.07091000f, -0.01632394f, 0.07678474f, 0.00758912f, 0.00756405f, 0.01432668f, -0.06968363f,
    -0.04170321f, -0.05324541f, 0.02401667f, -0.07929184f, 0.07474544f, -0.00275304f, -0.04450354f, -0.06384083f,
    -0.07465217f, 0.00882945f, 0.10026035f, 0.17304727f, 0.25225711f, 0.11273445f, 0.22262266f, 0.20718470f,
    0.17710578f, 0.20080349f, 0.02021005f, 0.12001587f, 0.19587915f, 0.33747631f, 0.32797956f, 0.29217887f,
    0.31252927f, 0.17752446f, 0.06683300f, -0.02403020f, -0.05146341f, 0.06505958f, 0.00716589f, 0.02478392f,
    -0.08001000f, -0.01164194f, -0.07081699f, 0.33669624f, 0.38332817f, 0.05770963f, 0.09400566f, 0.33237895f,
    0.24315056f, -0.01843891f, 0.30899388f, 0.24242547f, 0.22735912f, -0.01989126f, -0.07235950f, -0.03664424f,
    -0.02333924f, -0.08189946f, 0.18069105f, 0.15469821f, 0.07939728f, -0.12420911f, -0.06650247f, 0.20062105f,
    0.07197400f, -0.03618240f, 0.03538231f, 0.04801134f, 0.05096463f, 0.07537773f, -0.07091504f, 0.27617663f,
    0.34613872f, 0.27611113f, 0.24799292f, 0.05366490f, 0.37283278f, 0.17385720f, 0.11651229f, 0.19303471f,
    0.10722711f, 0.22973263f, 0.30799201f, 0.13757341f, 0.13313600f, 0.18555036f, 0.32985142f, 0.27290520f,
    0.30500859f, 0.08362853f, -0.06738902f, 0.06594164f, 0.10637050f, -0.09309545f, -0.12430860f, 0.01911008f,
    -0.00940518f, 0.03821834f, 0.16325077f, 0.17359109f, 0.33818722f, 0.11573993f, 0.07405294f, 0.00835390f,
    0.19295312f, 0.11849708f, 0.19611309f, 0.05307031f, 0.18199769f, 0.13509029f, 0.03752411f, 0.12257934f,
    0.10287896f, 0.07551918f, 0.06855925f, 0.02789279f, 0.03287027f, 0.09662393f, 0.05763242f, -0.07662781f,
    -0.11255872f, -0.05141448f, 0.29028687f, 0.06440776f, -0.02763174f, -0.00400911f, -0.00465100f, -0.00110184f,
    0.09675828f, -0.01168549f, -0.00429758f, 0.13368081f, 0.12723546f, 0.00360086f, -0.06485786f, -0.06520291f,
    -0.06913380f, -0.04548499f, -0.04501616f, 0.03045165f, 0.03456951f, 0.05894317f, 0.12064975f, 0.07627843f,
    -0.06318580f, -0.06040747f, -0.13496092f, -0.12879792f, -0.03843125f, 0.11347416f, 0.06899501f, -0.05366185f,
    -0.07794464f, 0.08554336f, 0.26588026f, -0.10381339f, 0.00966824f, -0.06754816f, 0.03265978f, 0.04451145f,
    -0.05280972f, -0.11157551f, -0.18767045f, -0.17237696f, -0.13066828f, -0.08724403f, -0.12948215f, -0.08561598f,
    0.01711252f, 0.08216108f, 0.04511977f, 0.03167536f, -0.12492237f, -0.00046836f, -0.05523697f, -0.13586619f,
    -0.11337303f, 0.03450119f, -0.01111605f, 0.12351742f, -0.04596245f, 0.27576283f, 0.16340588f, 0.01131234f,
    -0.15604068f, -0.12796120f, 0.03666797f, 0.09168003f, -0.05766911f, -0.12301518f, -0.01649117f, -0.12525821f,
    -0.18075448f, -0.20141062f, -0.05337698f, -0.04977093f, -0.02717513f, -0.06962807f, 0.07400451f, 0.04684602f,
    -0.02368466f, -0.17302306f, -0.10682370f, 0.03624125f, 0.12410063f, 0.02405894f, -0.04396430f, 0.07905421f,
    -0.05199382f, 0.35011587f, -0.06004240f, -0.09447423f, -0.00667038f, -0.00189566f, 0.06993075f, 0.08817296f,
    0.00165396f, -0.08434937f, -0.02830258f, -0.01266328f, 0.08701061f, 0.00319623f, -0.05601295f, -0.05136332f,
    0.02181973f, 0.02073885f, 0.04828744f, 0.03971848f, 0.07937372f, 0.08898249f, 0.11676999f, 0.04934083f,
    -0.06671464f, -0.28103712f, 0.02122312f, -0.03162632f, 0.04384907f, 0.26104060f, -0.15557696f, 0.06232042f,
    0.23143974f, 0.11591686f, 0.11756115f, 0.09302397f, -0.01361293f, 0.01101562f, -0.03339193f, 0.00187405f,
    0.13447599f, 0.00582059f, 0.14250889f, -0.00387926f, 0.04628015f, 0.06368688f, 0.04342787f, 0.04044819f,
    0.21269926f, 0.14317909f, 0.13521525f, 0.06065203f, 0.14470842f, 0.03151666f, -0.06198505f, 0.31679216f,
    -0.02175771f, 0.10543496f, 0.10448620f, 0.07319333f, 0.14248350f, 0.08877533f, 0.03472066f, 0.01446123f,
    0.00720492f, 0.13759625f, 0.12210067f, 0.07328685f, 0.06129843f, 0.25517097f, 0.19316554f, 0.07868518f,
    0.07684825f, 0.08319970f, 0.11277077f, 0.07054490f, 0.27166480f, 0.09787837f, 0.30635974f, 0.24144392f,
    0.03781551f, -0.24450609f, -0.24044628f, 0.26601025f, -0.02031558f, 0.07680556f, 0.14680989f, 0.21287386f,
    0.21739435f, 0.13167104f, 0.07918100f, 0.11116252f, 0.05904407f, 0.10390918f, 0.13251264f, 0.20000206f,
    0.14409529f, 0.26236454f, 0.31861517f, -0.02672723f, -0.00189407f, 0.21585244f, 0.10141120f, -0.04181498f,
    0.11495782f, 0.19195388f, 0.21004982f, 0.19597957f, 0.31168833f, -0.14246058f, -0.20707619f, -0.11550953f,
    0.01639584f, 0.08706847f, 0.21770361f, 0.26972964f, 0.22967297f, 0.16423726f, 0.09285107f, 0.04059476f,
    0.09570737f, 0.08897664f, 0.01836474f, -0.00745024f, 0.02058300f, 0.17202370f, 0.09324826f, 0.06815168f,
    0.15849824f, 0.18690945f, 0.00280298f, -0.02756702f, -0.02678130f, 0.07790496f, 0.14732037f, 0.17090181f,
    0.11272231f, -0.06056913f, -0.34160414f, -0.19670178f, -0.08606739f, 0.05327762f, 0.15927845f, 0.28059456f,
    0.07708231f, 0.17834279f, 0.06162324f, -0.18397921f, -0.09109577f, -0.05291174f, 0.10287820f, -0.06547353f,
    -0.07845766f, 0.06691807f, 0.00315482f, 0.05280820f, 0.14049348f, -0.00260045f, 0.02053065f, -0.15161715f,
    -0.06300093f, 0.04599039f, -0.01838817f, 0.04613244f, 0.17146370f, -0.11392856f, -0.29742011f, -0.05664203f,
    -0.11602829f, 0.03182093f, 0.25326133f, 0.04560785f, -0.15128377f, 0.22687191f, 0.01767736f, -0.04297375f,
    -0.01102075f, 0.03656397f, -0.03559843f, -0.13727324f, -0.04526193f, 0.02044689f, -0.09535405f, -0.02061004f,
    -0.14379014f, -0.10044024f, -0.06744576f, 0.05703990f, -0.00291071f, 0.09080952f, 0.06668171f, 0.29502168f,
    0.17523514f, -0.20004301f, -0.19139481f, -0.06027586f, -0.02137745f, 0.13818625f, 0.01253912f, -0.05518518f,
    -0.15257464f, 0.15380903f, 0.14335169f, -0.02998691f, -0.06164873f, -0.13310255f, -0.11152758f, -0.15561073f,
    -0.11433065f, -0.16177838f, -0.04379298f, -0.01475403f, -0.23930188f, -0.13051258f, 0.06169394f, 0.00552271f,
    0.07818108f, 0.08737982f, 0.21252978f, 0.28017339f, 0.25127038f, -0.19385490f, -0.20430368f, -0.05808676f,
    0.10205669f, 0.27502111f, 0.11301549f, -0.04470634f, -0.02125615f, 0.16060892f, 0.14767794f, 0.07186925f,
    -0.02088558f, 0.03970946f, 0.02659521f, -0.13435471f, -0.16579483f, -0.07241104f, -0.17240587f, -0.06375480f,
    -0.03228144f, 0.00141160f, -0.05627392f, -0.03547699f, -0.09509690f, -0.11224166f, 0.18956196f, 0.17170714f,
    0.16883273f, -0.35211158f, -0.13171704f, 0.08935443f, 0.01541306f, 0.15157391f, 0.00560467f, -0.00607439f,
    0.02104621f, 0.10811511f, 0.02085307f, 0.09740109f, 0.00581753f, -0.00458275f, -0.10340282f, -0.10818393f,
    -0.19162951f, -0.24413224f, -0.07308724f, -0.03336455f, 0.08839064f, 0.17271145f, 0.10817423f, 0.06877232f,
    -0.15573478f, -0.13489228f, -0.01918723f, 0.09791984f, 0.07291690f, -0.25348553f, -0.01805289f, 0.10792811f,
    0.14223821f, 0.08954272f, 0.18594372f, -0.02897618f, -0.03118933f, -0.10586299f, -0.01049529f, 0.12877165f,
    0.06817131f, 0.11509187f, 0.00055409f, -0.02285815f, -0.15215361f, -0.20928000f, -0.12775612f, 0.02880983f,
    0.10366875f, 0.21250850f, 0.17883925f, 0.06070838f, -0.24941318f, -0.31282297f, 0.00984202f, -0.01077540f,
    -0.24453151f, -0.25329590f, -0.07545914f, -0.29617122f, -0.12627351f, 0.17802083f, 0.03733102f, -0.05125734f,
    -0.02096935f, 0.08835631f, 0.03165304f, -0.05634779f, 0.10342614f, 0.17935155f, 0.01658425f, -0.18870738f,
    -0.06103968f, -0.20623654f, -0.05808622f, -0.02058033f, 0.03192835f, 0.17868316f, 0.11896364f, 0.05795479f,
    -0.24638030f, -0.31378517f, -0.15004881f, -0.23992676f, -0.00336849f, -0.35674533f, -0.17360047f, -0.28296274f,
    -0.05970132f, 0.20962797f, -0.16400263f, -0.00138876f, -0.05380297f, 0.08971749f, 0.03165393f, 0.04149889f,
    -0.01329172f, 0.13508780f, 0.03633136f, -0.02520150f, 0.04561954f, 0.00385003f, 0.07628401f, -0.01804730f,
    -0.12331711f, 0.06869083f, 0.03911441f, -0.12605819f, -0.28673249f, -0.28037408f, -0.39699128f, -0.42871079f,
    -0.12618907f, -0.26109105f, -0.17787418f, 0.05239422f, -0.07341285f, -0.07016997f, -0.04673628f, 0.02335220f,
    -0.14843993f, -0.11078857f, 0.01035868f, 0.04895748f, 0.13116050f, 0.03422395f, 0.05948009f, 0.05671711f,
    0.15757601f, 0.15337713f, 0.06081961f, 0.07287356f, -0.03076532f, 0.17918053f, 0.03746999f, -0.03930546f,
    -0.36409533f, -0.46055037f, -0.30993572f, -0.52270907f, -0.42530856f, -0.18275349f, 0.18798289f, -0.00319850f,
    -0.17427894f, -0.12546973f, -0.14975688f, -0.13162859f, -0.13849737f, -0.11386014f, -0.06389346f, -0.04367790f,
    0.00767259f, 0.03350626f, 0.09632295f, 0.09418532f, 0.18390489f, 0.19354570f, 0.17609991f, 0.11744869f,
    0.07081466f, -0.02294142f, -0.18556605f, -0.24296495f, -0.46215948f, -0.43987292f, -0.30699411f, -0.47138989f,
    -0.34419674f, -0.08627951f, -0.04968757f, 0.01321616f, 0.03196673f, 0.01440408f, 0.07702459f, -0.08935845f,
    -0.01555999f, 0.08237522f, -0.08101477f, -0.00703083f, -0.09937625f, -0.09277487f, -0.02492275f, 0.09437694f,
    -0.02067993f, -0.01437797f, 0.03952706f, 0.01022203f, -0.10005893f, -0.22620218f, -0.24454790f, -0.27919608f,
    -0.46444267f, -0.37778977f, -0.14427835f, -0.25568473f, -0.39385912f, -0.20155367f, -0.26990521f, 0.06817172f,
    0.07181794f, 0.07916232f, 0.07588264f, 0.28540590f, 0.41571787f, 0.26116493f, 0.02016924f, -0.01258137f,
    -0.12860817f, -0.25185767f, -0.13906388f, -0.09461634f, 0.08133871f, 0.02836628f, -0.12690967f, -0.05414277f,
    -0.04395333f, -0.18036678f, -0.28979853f, -0.16233245f, -0.14917374f, -0.29727978f, -0.26465830f, -0.30934370f,
    -0.24295188f, -0.20911358f, -0.00245853f, 0.01018208f, -0.05853619f, -0.05660560f, -0.23300444f, 0.08276953f,
    0.33776009f, 0.17786741f, 0.11464481f, 0.11439052f, 0.09947161f, -0.01447110f, 0.00633922f, 0.07638487f,
    0.23951973f, 0.12865424f, 0.10811096f, 0.04112494f, 0.18235041f, 0.04275981f, -0.03178401f, 0.26473492f,
    0.16165522f, -0.14821638f, 0.17346853f, -0.21412975f, -0.11395372f, 0.03685511f, -0.06345909f, -0.06500125f,
    -0.02488765f, -0.05989972f, -0.04781023f, 0.04467293f, -0.26010710f, -0.16737017f, 0.06287084f, 0.15983966f,
    0.12129649f, 0.07127790f, 0.22523272f, 0.23162822f, 0.17152104f, 0.43443063f, 0.34739152f, 0.26124221f,
    0.22075769f, 0.25888273f, 0.29467404f, 0.44882581f, 0.17926793f, 0.14113145f, 0.32746106f, -0.00740166f,
    -0.10214961f, 0.00057396f, 0.03602262f, -0.05262540f, 0.05099482f, 0.06739173f, -0.03717345f, 0.02639160f,
    0.15668969f, 0.30840340f, 0.25950831f, 0.14751142f, 0.15034705f, 0.14215302f, 0.46559215f, 0.04642302f,
    0.02480691f, 0.27908695f, 0.36805627f, 0.05729332f, 0.03648093f, 0.13799809f, 0.17451543f, 0.25363702f,
    0.03649733f, 0.05539606f, 0.13826162f, 0.25024980f, -0.07538559f, -0.07490637f, -0.04284118f, 0.00746171f,
    0.02168547f, -0.02150594f, -0.05893469f, -0.07288871f, 0.04167333f, -0.01080729f, 0.02602895f, -0.06977965f,
    -0.06425425f, 0.00584698f, -0.04279193f, -0.06231097f, -0.02967164f, -0.00409587f, 0.07739916f, -0.08309600f,
    -0.02566282f, -0.05007449f, -0.07562175f, 0.07932990f, 0.07028990f, 0.06016145f, 0.04165673f, -0.05755658f,
    0.01375411f, 0.07365864f, 0.07768769f, -0.02557245f, 0.06457391f, 0.03300775f, 0.00660995f, -0.03371594f,
    0.02751772f, 0.07898305f, 0.07822645f, -0.01238444f, 0.05129265f, -0.00860244f, -0.10786662f, -0.00873658f,
    0.10705330f, -0.03396643f, 0.02799287f, -0.01414560f, -0.38806951f, -0.23934031f, 0.19735590f, -0.00170070f,
    0.13561651f, 0.03913040f, 0.02317331f, 0.12279645f, 0.03208545f, 0.00354987f, -0.04126338f, 0.03264413f,
    0.02291137f, 0.07624150f, -0.01825176f, 0.01304865f, 0.05097357f, 0.14730497f, 0.03765281f, 0.00805436f,
    -0.09671771f, -0.32617521f, -0.22467738f, -0.34761885f, -0.15811904f, -0.14871198f, -0.21931766f, 0.03100999f,
    0.09437224f, 0.18638846f, 0.12214094f, 0.41957277f, 0.19030721f, 0.00459711f, 0.05594443f, -0.08638274f,
    -0.21969983f, -0.20478612f, 0.06480350f, 0.02443766f, 0.01101874f, 0.07687838f, -0.07836733f, 0.12887259f,
    -0.03346488f, 0.06000742f, 0.10426819f, -0.08218940f, -0.35483912f, -0.60359251f, -0.50472397f, -0.20730603f,
    0.08666880f, -0.19434683f, -0.10564565f, 0.00540683f, -0.03748006f, 0.08949904f, 0.09675403f, 0.13628846f,
    -0.00572422f, 0.00844610f, 0.05939740f, 0.07258069f, -0.10995922f, 0.10566693f, 0.25913343f, 0.07953561f,
    -0.07688455f, 0.07112133f, -0.03608459f, 0.05032295f, -0.04310215f, 0.15273160f, 0.14401856f, -0.04327811f,
    -0.40288690f, -0.45995212f, -0.69291627f, -0.14313325f, -0.19738746f, -0.06145197f, -0.02663713f, -0.10402542f,
    -0.23448929f, -0.14340076f, -0.06480180f, -0.15608709f, -0.00553355f, -0.02043091f, 0.03164775f, 0.29035643f,
    0.27983063f, 0.07407041f, -0.20415427f, -0.17848051f, -0.07692516f, 0.06370167f, -0.08029458f, -0.19841018f,
    -0.12931374f, 0.16800220f, 0.12132303f, -0.02746683f, 0.08680341f, 0.00512508f, -0.12521780f, -0.06869875f,
    -0.00595015f, 0.04000677f, 0.04125432f, -0.05053744f, -0.07266387f, 0.04435487f, -0.06149757f, -0.25047833f,
    -0.11801917f, -0.15990457f, -0.08230156f, 0.20362119f, 0.13840717f, -0.03774489f, 0.03227947f, 0.07633018f,
    0.03559922f, -0.13216901f, -0.07534167f, -0.00458805f, 0.06429835f, 0.30140877f, 0.15932295f, 0.08016324f,
    0.07572989f, -0.09414721f, -0.17472872f, 0.14877407f, 0.00328767f, 0.01341007f, 0.11960669f, 0.04510319f,
    0.11456876f, 0.01728252f, 0.00275648f, 0.07252262f, 0.06066696f, 0.01450696f, 0.08905808f, 0.07422944f,
    0.18548150f, -0.15154159f, 0.09799553f, -0.07241865f, 0.01655733f, -0.39691669f, -0.02832675f, 0.44752342f,
    -0.24090698f, -0.11902343f, -0.13318859f, -0.15960991f, -0.07785680f, 0.06221995f, 0.00753619f, -0.03447475f,
    0.01927983f, 0.05451630f, 0.14675567f, 0.08287932f, 0.14864451f, 0.18129283f, 0.03938872f, -0.08434603f,
    0.08875313f, -0.00523310f, -0.02734524f, 0.13547944f, 0.01465156f, -0.07202265f, 0.16387039f, -0.05267452f,
    -0.02081002f, -0.24709901f, 0.00199613f, 0.42724919f, -0.02795648f, -0.08579293f, -0.12827408f, -0.09710138f,
    0.00534635f, -0.09797541f, -0.06803478f, -0.11059741f, -0.07368053f, 0.06081124f, 0.13033122f, 0.19659300f,
    0.18636602f, -0.00158695f, 0.07319946f, -0.06956011f, 0.03967135f, 0.03168138f, -0.01558843f, -0.04220144f,
    0.12945695f, 0.02200652f, -0.13225022f, -0.20119533f, 0.00027537f, -0.01705380f, -0.16152248f, -0.20470290f,
    -0.19187589f, -0.26536289f, -0.27856150f, -0.03009340f, 0.02332920f, -0.04693444f, -0.16948940f, -0.06422944f,
    -0.06718232f, 0.01271184f, 0.11952634f, 0.04047982f, 0.11275423f, 0.05225519f, 0.05974622f, 0.10974617f,
    -0.02802526f, 0.00660672f, -0.01220626f, -0.23324028f, 0.00438001f, -0.07223310f, -0.16319878f, 0.25449434f,
    -0.01188443f, -0.12309668f, 0.04960475f, -0.07920210f, -0.15754515f, -0.35148221f, -0.28779870f, -0.20086937f,
    -0.04795163f, -0.15786739f, -0.33755457f, -0.03876277f, 0.08647610f, 0.26473296f, 0.16912083f, 0.09336851f,
    0.01688883f, -0.07389847f, -0.02535805f, -0.01359278f, 0.02690231f, -0.01460693f, -0.07165810f, -0.07781725f,
    0.11289609f, 0.17724295f, 0.28482577f, 0.11846188f, -0.01783456f, -0.14923880f, 0.20002453f, 0.09907823f,
    -0.24870346f, -0.29670200f, -0.17863369f, 0.05750854f, -0.05882096f, -0.20611623f, -0.06670067f, 0.02912992f,
    0.15535438f, 0.29507428f, 0.10699962f, 0.16485263f, -0.00181581f, 0.03167542f, -0.05451164f, -0.09482578f,
    -0.16432211f, 0.02728742f, -0.02253620f, -0.05691824f, -0.01457821f, 0.11070523f, 0.23244123f, 0.02046420f,
    0.06039950f, 0.10972662f, 0.17346177f, 0.03547142f, -0.32201883f, -0.52200395f, -0.38966575f, -0.07746731f,
    0.00884466f, -0.14852777f, 0.02234055f, 0.33905879f, 0.32798469f, 0.37644297f, 0.26439834f, 0.18103130f,
    0.07509913f, 0.03230460f, -0.10308365f, -0.15424237f, -0.22736132f, -0.29906705f, -0.16501707f, -0.27389327f,
    -0.20276669f, 0.10809989f, 0.19103633f, 0.26790386f, -0.15756957f, 0.14634584f, -0.02765491f, -0.17152056f,
    -0.41235405f, -0.46099496f, -0.30442840f, -0.00122635f, -0.05318709f, 0.00271764f, 0.20361137f, 0.22132525f,
    0.28648549f, 0.28450978f, 0.26565772f, 0.17188205f, 0.23454192f, 0.02384513f, -0.02564000f, -0.14576104f,
    -0.13953224f, -0.32903290f, -0.45451975f, -0.45291841f, -0.24045222f, -0.14273565f, -0.02608983f, -0.14279929f,
    0.19223142f, 0.09955297f, -0.18711765f, -0.23325847f, -0.59639627f, -0.24057247f, -0.53723216f, -0.18439525f,
    -0.06389797f, 0.09514762f, 0.14045604f, 0.23252162f, 0.31421191f, 0.18884754f, 0.14291561f, 0.13072258f,
    0.12134731f, 0.06615998f, 0.00228158f, -0.06472003f, 0.10443658f, -0.07608283f, -0.31415570f, -0.24836509f,
    -0.34854510f, -0.24200447f, -0.40732703f, -0.10843214f, 0.07919849f, 0.04100408f, -0.34838024f, -0.26688853f,
    -0.00285837f, -0.12908497f, -0.21171714f, -0.40217873f, -0.14380261f, 0.00004604f, 0.19201501f, 0.09573973f,
    0.34746879f, 0.13957405f, 0.12591466f, 0.18690939f, 0.18312624f, 0.29359683f, 0.02677080f, -0.09239814f,
    -0.15951692f, -0.15376513f, -0.24818239f, -0.15551166f, -0.19132580f, -0.19105208f, -0.17679089f, -0.13811496f,
    0.08110998f, -0.20661269f, -0.30344978f, -0.14837275f, 0.23909932f, 0.06342001f, -0.20368220f, -0.46364287f,
    -0.26774490f, -0.33337796f, -0.09414086f, 0.10293831f, 0.16602275f, 0.05896377f, 0.03035794f, 0.18989913f,
    0.29586336f, 0.20453644f, -0.02741862f, -0.15139014f, -0.12420107f, -0.30220237f, -0.35170400f, -0.22707260f,
    -0.48713905f, -0.43671420f, -0.38803309f, -0.10760763f, 0.05384930f, -0.18941021f, -0.31503254f, 0.04020069f,
    0.16466421f, 0.12690839f, -0.03306793f, -0.18169707f, -0.30205414f, -0.14259158f, -0.13045840f, -0.10434862f,
    -0.12537836f, 0.00765188f, 0.04828548f, 0.20252132f, 0.27297476f, 0.24851228f, 0.02836797f, -0.30882883f,
    -0.26044837f, -0.39872119f, -0.13156424f, 0.00749507f, -0.17648736f, 0.00276868f, 0.01456484f, -0.31507036f,
    0.17228870f, -0.00578447f, -0.12104538f, -0.17226239f, 0.16291676f, 0.06964350f, -0.05590130f, -0.06914494f,
    -0.02145186f, -0.21495691f, -0.21595423f, -0.01801239f, -0.04268830f, 0.01491168f, 0.17872798f, 0.25041178f,
    0.22482233f, 0.01709205f, -0.25868028f, -0.39529613f, -0.38931799f, -0.20143719f, -0.27867663f, -0.30347633f,
    -0.19481048f, -0.08831191f, 0.32267612f, -0.08336318f, -0.00215290f, 0.32164574f, 0.02645637f, -0.29368803f,
    0.02075217f, 0.00751966f, 0.09014230f, -0.01481452f, -0.04994592f, -0.31958595f, -0.19182077f, -0.11464248f,
    0.03286127f, 0.06068782f, 0.12230723f, 0.01161136f, 0.10671647f, -0.10673899f, -0.27431387f, -0.30558380f,
    -0.50345379f, -0.32397592f, -0.19962396f, -0.33054677f, -0.37359217f, -0.07821934f, -0.02605958f, -0.13590457f,
    -0.02980404f, 0.18672258f, -0.14980207f, -0.49238259f, -0.09317455f, 0.03559985f, 0.03543323f, -0.18718272f,
    -0.04940133f, -0.01026131f, -0.05531429f, -0.03305654f, 0.00456347f, -0.00507950f, 0.23615991f, 0.02597621f,
    0.00198076f, -0.04001639f, -0.25568581f, -0.41890800f, -0.50209433f, -0.29373080f, -0.05154502f, -0.20636171f,
    -0.11151597f, 0.00631203f, 0.15993378f, 0.08393642f, -0.00488246f, -0.11511517f, -0.18034129f, -0.21041834f,
    -0.20830724f, -0.04182474f, -0.13790832f, -0.02217004f, -0.00581135f, 0.02525474f, -0.06278773f, 0.06596860f,
    0.05801940f, 0.04823989f, -0.01445532f, 0.00599186f, -0.11214222f, -0.14024602f, -0.25484270f, -0.45267013f,
    -0.44935042f, -0.18066445f, -0.23705439f, -0.22927181f, -0.09023147f, 0.03443318f, -0.09920380f, 0.05180814f,
    0.03369429f, 0.00461929f, 0.14218268f, -0.11158991f, 0.02240968f, -0.11107966f, -0.10462311f, 0.07963533f,
    0.14977002f, 0.11903618f, 0.15355952f, 0.10327644f, 0.18086287f, -0.09287102f, -0.12336985f, -0.21381769f,
    -0.21988359f, -0.20235536f, -0.33630145f, -0.32808334f, -0.35288516f, -0.05678102f, 0.01372495f, 0.07016712f,
    -0.12980135f, -0.20600200f, 0.07680933f, 0.04473764f, -0.02525089f, -0.03478198f, -0.28500217f, -0.16116640f,
    -0.12726325f, -0.15476218f, -0.02587761f, 0.19175953f, 0.19014744f, 0.09338304f, 0.23427077f, 0.19894232f,
    0.03222553f, -0.20168322f, -0.10124948f, -0.30366963f, -0.21273431f, -0.31661078f, -0.25668997f, -0.38566324f,
    -0.33137208f, -0.17039767f, -0.13137150f, 0.11439116f, -0.11181998f, -0.01793234f, -0.04693241f, -0.07498240f,
    0.06362388f, -0.00141407f, -0.12158428f, 0.15191665f, 0.17959696f, 0.23672263f, 0.05204116f, 0.16093589f,
    0.12839645f, 0.00533648f, 0.05435983f, -0.11182810f, -0.02266331f, -0.09996411f, -0.21374907f, -0.28666413f,
    -0.18700536f, -0.19365573f, -0.11836844f, -0.30026844f, -0.20693356f, -0.19624892f, -0.05254737f, 0.42470798f,
    0.11975060f, -0.04606540f, -0.13642791f, 0.04711585f, 0.03905411f, 0.03897254f, -0.08162806f, 0.14215986f,
    0.32262343f, 0.23979957f, -0.12605134f, -0.09330698f, -0.04721807f, 0.01020951f, 0.08278649f, 0.17843136f,
    -0.07007221f, 0.00729765f, -0.15772130f, -0.00788082f, -0.03754297f, -0.10346058f, -0.07794699f, -0.14767969f,
    -0.16757640f, -0.11252330f, -0.09275912f, 0.33953938f, 0.18953301f, -0.03077825f, 0.03459214f, 0.03951112f,
    -0.00250831f, -0.07698359f, 0.06844818f, 0.18163866f, 0.40126967f, 0.36884663f, 0.34570187f, 0.53968233f,
    0.22760536f, 0.14257759f, 0.21389130f, 0.22658823f, 0.34564069f, 0.28911442f, 0.39996874f, 0.27978519f,
    0.46393546f, 0.16183037f, 0.03192257f, -0.03034825f, 0.09027708f, 0.17635508f, 0.21363960f, -0.05309873f,
    -0.03346670f, 0.06248528f, 0.02084883f, 0.06081014f, 0.08313295f, 0.08455051f, 0.01239263f, -0.04395684f,
    -0.08079298f, -0.28624061f, 0.10012619f, 0.16288750f, 0.18134233f, 0.09821190f, 0.28839892f, 0.41798663f,
    0.31944120f, 0.25074917f, 0.61200792f, 0.36735865f, 0.25040391f, 0.34954596f, 0.19221747f, 0.10106143f,
    0.05046902f, 0.04281928f, -0.05226768f, 0.03373694f, -0.01209129f, 0.00378835f, -0.01799337f, -0.01129468f,
    0.03167281f, -0.01115799f, -0.01837134f, -0.01146553f, 0.07117867f, -0.06054170f, -0.02458759f, -0.02555726f,
    -0.05731994f, -0.00799512f, 0.01230805f, -0.07165600f, -0.05455478f, 0.04319566f, 0.22570913f, 0.14328672f,
    -0.03548437f, 0.01731595f, -0.01383078f, -0.03782400f, -0.00364470f, -0.02623597f, -0.03353926f, 0.04502178f,
    -0.04017376f, -0.06261743f, 0.08189850f, -0.05271878f, 0.00554803f, -0.07903815f, 0.02042754f, -0.00144316f,
    -0.03861481f, -0.08891310f, -0.10504906f, -0.13881005f, -0.13430415f, -0.11571299f, -0.21427320f, -0.30641982f,
    -0.26870376f, -0.32893667f, 0.09451736f, 0.02444622f, -0.19305418f, -0.18137592f, -0.23271802f, -0.35365963f,
    -0.30039328f, -0.23883899f, -0.11859066f, -0.14714415f, -0.00098823f, -0.04429566f, 0.00630923f, -0.03220708f,
    0.07044027f, 0.06246050f, -0.05737320f, 0.01422667f, -0.29584649f, -0.31726763f, -0.17639302f, -0.26350692f,
    -0.28797078f, -0.16127342f, -0.13489372f, -0.16405711f, -0.20376918f, 0.15200578f, -0.10953282f, -0.06610548f,
    0.06515302f, -0.07629263f, -0.04383816f, -0.10271492f, -0.06532112f, -0.30605823f, -0.14997055f, -0.04649483f,
    0.15093040f, 0.10251126f, -0.03421143f, -0.01695711f, 0.04075786f, -0.02223741f, 0.05838467f, -0.22375022f,
    -0.24793594f, 0.01274369f, -0.05463819f, -0.15831496f, -0.10775711f, -0.05614198f, -0.11581817f, -0.08716748f,
    0.07543863f, 0.12453357f, -0.03766918f, 0.03552492f, -0.07479144f, 0.08642045f, 0.00865723f, 0.01627368f,
    -0.15874013f, -0.09371140f, -0.02191081f, -0.02031456f, -0.21492428f, 0.16496420f, -0.06087592f, 0.01529095f,
    0.02989148f, 0.10205435f, 0.09717995f, 0.02763806f, -0.08417970f, 0.17643760f, 0.06277897f, -0.03926802f,
    0.06704922f, 0.13103682f, 0.09797499f, 0.18617235f, 0.32396629f, 0.03458153f, 0.18237053f, 0.12942736f,
    0.07041259f, 0.02911423f, 0.07503423f, -0.00006684f, -0.03209272f, -0.20624089f, -0.17058316f, -0.18001737f,
    -0.08859069f, 0.16470909f, 0.19360152f, -0.11601623f, -0.07832125f, 0.06764164f, -0.02576963f, 0.23340935f,
    -0.08065780f, 0.34516388f, 0.01867471f, 0.01468509f, -0.02023059f, 0.13469981f, -0.00066121f, 0.17006738f,
    0.22586688f, 0.14922984f, 0.13498400f, 0.18294522f, 0.15978776f, -0.04639313f, -0.14373505f, -0.06789557f,
    0.05778969f, 0.02428233f, -0.04879838f, -0.33900365f, -0.14905481f, 0.08298261f, -0.11236608f, -0.11699360f,
    -0.00287949f, 0.12606779f, 0.12441038f, 0.14735782f, -0.17199901f, -0.17852636f, 0.11071001f, -0.00883039f,
    0.00710181f, 0.15023370f, 0.29145008f, 0.31785640f, 0.19507411f, 0.19822009f, 0.05734942f, 0.08872232f,
    0.14803383f, 0.06815916f, 0.03522338f, 0.11209995f, 0.15187137f, 0.08801657f, -0.01045501f, -0.02763830f,
    -0.04337925f, 0.08858974f, -0.11730194f, 0.01907348f, 0.03824944f, 0.41988468f, -0.07250711f, 0.14677860f,
    -0.08565507f, -0.10531932f, 0.05985122f, 0.00092801f, 0.11698976f, 0.06616698f, 0.26032075f, 0.06068482f,
    0.20470735f, 0.08039284f, 0.17058291f, 0.12304786f, 0.14448333f, -0.01881247f, 0.02834058f, 0.03878191f,
    0.04696990f, 0.12018421f, 0.01788333f, -0.01031210f, -0.09950125f, -0.06480224f, 0.02505421f, -0.14279701f,
    0.07943761f, 0.18405572f, -0.07791030f, 0.09539058f, -0.00971639f, 0.03756342f, 0.20209017f, 0.14902027f,
    0.09562505f, 0.07981765f, -0.03228245f, 0.00055321f, 0.15347405f, 0.18268345f, 0.22285816f, 0.12588137f,
    0.04478471f, 0.02434886f, 0.18886425f, 0.12301140f, -0.10369581f, -0.00494384f, 0.10870635f, 0.12205307f,
    -0.07489071f, 0.12083939f, 0.21106178f, 0.26394215f, 0.07467759f, 0.15410779f, -0.01809968f, 0.26771557f,
    0.08091725f, 0.11869060f, 0.19845992f, 0.05018220f, -0.00644334f, -0.05781744f, -0.09322271f, -0.01930544f,
    0.07545676f, 0.13623394f, 0.19042452f, 0.15498327f, 0.01423533f, 0.04683166f, 0.07041369f, 0.04125758f,
    0.00919339f, 0.12232409f, 0.10012095f, -0.01856543f, 0.12737431f, 0.56948650f, 0.64656448f, -0.12263583f,
    0.01056646f, 0.11365022f, -0.00046294f, 0.16109808f, 0.17099234f, 0.16192852f, -0.01118429f, -0.01185014f,
    -0.12100033f, -0.05701627f, 0.00002319f, 0.03953178f, -0.00104981f, 0.08496142f, 0.10838321f, 0.11811516f,
    0.10405744f, 0.01196194f, 0.09283892f, 0.08562849f, 0.17059307f, -0.00136668f, -0.02276992f, -0.03814859f,
    0.04153785f, 0.18916926f, 0.30418181f, 0.10462450f, -0.07773072f, -0.01811451f, 0.06882165f, 0.38996875f,
    0.41312125f, 0.14789802f, -0.13053942f, -0.11357013f, -0.13769427f, -0.17219804f, -0.14056508f, -0.09597142f,
    0.04784419f, 0.20549488f, 0.19457278f, 0.11264635f, -0.00450286f, 0.11891518f, 0.18691157f, 0.04034667f,
    0.04260809f, -0.03928823f, 0.07121734f, 0.06080939f, 0.18370026f, 0.35238668f, 0.30198336f, 0.29842800f,
    -0.06566574f, 0.09740556f, 0.01509146f, 0.15143199f, 0.20539546f, 0.17718807f, -0.18646006f, -0.10428271f,
    -0.18942232f, -0.22275931f, -0.09014834f, -0.04944665f, -0.00391380f, 0.00845994f, 0.20973788f, 0.21747923f,
    0.14677858f, 0.09979330f, 0.15384573f, 0.01995124f, 0.03585251f, -0.07501777f, -0.18496430f, -0.07092206f,
    -0.00586221f, 0.10699221f, 0.38508731f, 0.36703989f, 0.10499710f, 0.09417881f, 0.22658233f, 0.05561348f,
    0.02092023f, -0.26277724f, -0.24859646f, -0.24124442f, -0.10784446f, -0.06945491f, -0.23660754f, 0.05660564f,
    0.15351133f, 0.19901030f, 0.19806696f, 0.22614615f, 0.15033829f, 0.26353115f, -0.02351499f, -0.08957499f,
    0.02074154f, -0.09819647f, -0.16921562f, -0.28423759f, 0.00190660f, 0.08588535f, 0.27892721f, 0.14929301f,
    -0.22284983f, -0.00233216f, 0.30600563f, -0.02590814f, -0.17768793f, -0.35283136f, -0.20206650f, -0.29980332f,
    -0.20268480f, -0.14313434f, 0.04473508f, 0.02110686f, 0.11476347f, 0.20647708f, 0.29636666f, 0.23571457f,
    0.42679021f, 0.30459464f, -0.03913715f, -0.14062564f, -0.26423874f, -0.06688128f, -0.18044220f, -0.06714612f,
    -0.09950910f, -0.09144318f, 0.43817529f, 0.18985634f, -0.10679048f, 0.16016914f, 0.19936062f, 0.00621078f,
    -0.24992058f, -0.41958907f, -0.34939334f, -0.34299228f, -0.09776173f, -0.00990298f, -0.10592981f, 0.01295822f,
    0.02537367f, 0.22317900f, 0.30991951f, 0.34617868f, 0.34479266f, 0.11601597f, -0.12688759f, -0.18691498f,
    -0.30523434f, -0.15962143f, 0.00481338f, -0.20565963f, -0.13913582f, -0.26865184f, 0.07979405f, 0.11356851f,
    0.07139517f, 0.18292786f, 0.45352918f, 0.11833645f, -0.13610484f, -0.37519190f, -0.24894120f, -0.31746891f,
    -0.31850085f, -0.11177184f, -0.07990204f, -0.08732313f, 0.12610833f, 0.19546700f, 0.22926094f, 0.24122225f,
    0.34590667f, 0.10798633f, -0.14938132f, -0.37026212f, -0.22817023f, -0.03301736f, -0.06357599f, 0.07251645f,
    0.05304002f, -0.22492471f, 0.17719115f, 0.05363565f, -0.07008900f, 0.22527449f, 0.25348359f, 0.19843292f,
    0.05741770f, -0.09928551f, -0.05488644f, -0.26463762f, -0.29225296f, -0.16278271f, -0.30094492f, -0.04392340f,
    0.11738187f, 0.17644736f, 0.23718013f, 0.23645237f, 0.13191231f, -0.12938792f, -0.28676489f, -0.13856292f,
    -0.14856751f, 0.01461807f, -0.06163237f, 0.03860924f, 0.15631051f, -0.16248339f, 0.30842850f, 0.15410846f,
    0.15051329f, -0.02076372f, 0.36065304f, 0.25277916f, 0.04225022f, 0.07337663f, -0.01432935f, -0.24966425f,
    -0.17554180f, -0.22423255f, -0.18592362f, 0.01687729f, -0.03324528f, 0.16090561f, 0.14681664f, 0.15365151f,
    0.01268171f, -0.07269033f, -0.16050357f, -0.08295534f, 0.13285099f, -0.06810067f, 0.15245701f, -0.02052883f,
    0.01592337f, 0.03828228f, 0.21848412f, 0.28336576f, 0.04223540f, -0.13941666f, 0.03269414f, -0.18364018f,
    0.03957042f, 0.04169163f, 0.07891926f, -0.07621494f, -0.06040321f, -0.13747193f, -0.18944114f, -0.17759611f,
    -0.00516371f, 0.07622340f, 0.10375421f, 0.00631704f, 0.06798365f, 0.01441266f, -0.08197001f, -0.04447144f,
    0.00637454f, 0.01429388f, 0.04637389f, 0.13008733f, 0.17426889f, 0.31273520f, 0.14452365f, 0.10766279f,
    0.06538085f, -0.15280770f, -0.06109843f, -0.06933026f, -0.06512707f, 0.09438951f, 0.19800867f, 0.10023267f,
    0.07789340f, -0.11103108f, -0.15544397f, -0.02778298f, -0.00022006f, 0.03479278f, 0.03855129f, -0.02670096f,
    -0.00600298f, -0.06869899f, 0.06823996f, 0.08812764f, 0.17078459f, -0.01036365f, 0.10687724f, 0.19488175f,
    0.16233627f, 0.11606279f, 0.14653228f, -0.01310551f, 0.00713461f, 0.15026920f, -0.04045338f, 0.18112586f,
    0.13051307f, 0.15646380f, 0.41578773f, 0.30309448f, 0.06645386f, 0.03743568f, 0.06859701f, -0.04013054f,
    0.04933145f, 0.05137381f, 0.05431585f, 0.05514176f, -0.10493877f, 0.05541740f, -0.05507350f, 0.05473881f,
    0.02435420f, 0.09610745f, -0.07633255f, 0.00476247f, -0.05943260f, -0.03199465f, -0.27041996f, -0.03260597f,
    0.05426153f, 0.14612348f, -0.04121118f, 0.06817416f, 0.24426503f, 0.29224011f, 0.29981706f, 0.27638590f,
    0.25211829f, 0.25607610f, 0.18766578f, 0.13921507f, 0.14098868f, -0.01986607f, 0.08188033f, -0.14032511f,
    -0.11462924f, -0.06147081f, -0.13212162f, -0.17422363f, -0.03516226f, -0.05955756f, 0.03258688f, 0.00364603f,
    0.08530751f, 0.07696223f, -0.32998705f, -0.06615146f, -0.01700289f, 0.02847888f, 0.22606421f, 0.01582140f,
    0.09005656f, 0.16378090f, -0.04962165f, 0.17805040f, 0.17653066f, 0.09745304f, 0.16608539f, 0.12929770f,
    0.16906218f, 0.21778034f, 0.00261642f, -0.02886545f, -0.11681746f, -0.15000275f, -0.07760601f, -0.13819341f,
    -0.02533422f, -0.06066294f, 0.05304281f, 0.17892505f, -0.09734216f, -0.11396505f, 0.01373346f, -0.03602303f,
    0.05327926f, 0.05404637f, 0.12924595f, -0.09500155f, -0.05932150f, -0.13289604f, -0.01328449f, 0.02388266f,
    0.12303977f, 0.09880240f, 0.12743424f, 0.29629716f, 0.17030489f, 0.05090290f, 0.05100716f, -0.02363431f,
    -0.28822914f, -0.23211807f, -0.01534588f, 0.07075100f, -0.08346312f, 0.00235006f, -0.21419387f, -0.07724792f,
    -0.12611391f, 0.00153628f, 0.02911937f, 0.05988855f, -0.07958783f, 0.05325194f, -0.12647238f, -0.12778711f,
    -0.04851908f, 0.06626575f, 0.34611914f, 0.19817445f, 0.31965286f, 0.25303546f, 0.02560499f, -0.00958928f,
    0.27598312f, 0.11577638f, 0.23892300f, 0.07907570f, 0.04040297f, 0.20481552f, 0.21128775f, 0.56489134f,
    0.31448531f, -0.11505077f, -0.31770909f, -0.38816306f, -0.19777645f, -0.12385076f, -0.09289539f, -0.04444188f,
    0.07073789f, 0.01838492f, 0.02511581f, 0.01362557f, -0.14053296f, 0.07956560f, 0.18571700f, 0.16371457f,
    0.13962728f, 0.29878899f, 0.15242922f, 0.18173899f, 0.03063630f, 0.26734018f, 0.41073996f, 0.15034059f,
    0.07693528f, 0.27952364f, 0.36543453f, 0.24849758f, 0.25421309f, 0.16865265f, 0.02401106f, -0.05312125f,
    -0.01226693f, 0.09373538f, 0.07874463f, 0.07301810f, 0.01381250f, -0.02338596f, -0.07844741f, -0.07173075f,
    0.07825751f, 0.12081872f, 0.26008675f, 0.21827668f, 0.31342456f, 0.13120042f, 0.43007189f, 0.07994609f,
    0.02747524f, 0.15699172f, 0.20389962f, 0.04955180f, 0.01871083f, 0.09522393f, -0.03669105f, 0.16835986f,
    -0.09673312f, 0.06881911f, 0.05354018f, 0.10915366f, -0.01922961f, 0.07195831f, 0.08081033f, -0.07228556f,
    0.04018421f, -0.02168147f, 0.08439361f, 0.00704702f, -0.08328825f, 0.04539346f, 0.03742988f, -0.06657106f,
    0.04833513f, 0.02763575f, 0.01568655f, 0.01614307f, 0.09440262f, 0.06936121f, 0.17973289f, 0.11779485f,
    0.04902557f, 0.01231660f, -0.01472123f, 0.07282337f, -0.03730488f, 0.07061175f, -0.05803872f, 0.03296971f,
    0.01439174f, 0.05076487f, -0.04811677f, -0.05144818f, -0.03712280f, 0.03145767f, 0.04657125f, -0.05925879f,
    0.08397853f, 0.08128489f, 0.10661431f, 0.03333550f, 0.13151520f, -0.00947096f, -0.02826566f, 0.08094638f,
    0.06020405f, 0.11432111f, 0.24376823f, 0.05846693f, -0.12180194f, -0.02407636f, -0.09704705f, 0.15885618f,
    0.15786219f, -0.00255416f, 0.07681622f, 0.10874163f, 0.06411599f, 0.08285809f, -0.08498302f, 0.07095226f,
    -0.00521222f, -0.01951651f, -0.07107593f, -0.06664719f, 0.10241996f, 0.09077623f, 0.10108341f, 0.07362852f,
    0.30259058f, 0.39349416f, 0.36326721f, 0.24785246f, 0.10379164f, 0.23232810f, 0.16113456f, 0.29824910f,
    0.42791882f, 0.19909644f, 0.25207651f, 0.36044556f, 0.25086987f, 0.04602486f, 0.05604260f, 0.29026261f,
    0.26285186f, 0.11544490f, 0.06199249f, 0.06005640f, -0.08446836f, -0.04570474f, -0.07030144f, 0.18381001f,
    0.03531168f, 0.05659463f, 0.20706101f, 0.04171547f, -0.09830476f, -0.06399463f, -0.02976575f, -0.10435343f,
    -0.01669895f, 0.03890609f, -0.02084719f, 0.02365553f, 0.08430563f, 0.04322562f, -0.06218991f, 0.14385997f,
    0.14990050f, 0.10684550f, 0.09993164f, 0.20687200f, 0.31009284f, -0.00781832f, 0.06798116f, 0.07242046f,
    0.07015010f, -0.07072152f, -0.06128763f, -0.18987440f, -0.08264586f, 0.14167061f, 0.27314252f, -0.16924168f,
    -0.03285481f, -0.13462384f, -0.09300561f, -0.21604505f, -0.01870616f, -0.12629345f, -0.10126493f, -0.11726319f,
    0.03388297f, -0.04287522f, 0.00616020f, 0.07906976f, 0.09111352f, 0.15915272f, -0.02718548f, 0.19276030f,
    -0.05580948f, 0.06706707f, 0.15329184f, 0.21813916f, 0.03926546f, 0.03343661f, 0.02789365f, -0.06907751f,
    0.17192198f, 0.42834347f, 0.07414965f, 0.07415005f, 0.11338824f, 0.05882308f, -0.14039648f, -0.17624708f,
    0.07116484f, 0.00297349f, 0.08865061f, -0.01191520f, 0.11234071f, -0.08338351f, -0.03864355f, -0.11494315f,
    0.06681921f, 0.08672438f, 0.21421130f, 0.35900640f, 0.39431012f, 0.13501990f, 0.08367631f, 0.23260456f,
    0.03640237f, 0.04587134f, -0.09896924f, -0.02152949f, -0.02144971f, 0.16366644f, 0.12090982f, 0.21031260f,
    0.02581310f, 0.05242879f, 0.01331900f, -0.02601799f, 0.08244499f, -0.07735361f, 0.02049497f, -0.04273001f,
    0.03941678f, -0.03552573f, -0.04413941f, 0.01007338f, -0.05396212f, -0.04682156f, 0.14224397f, -0.01381511f,
    0.37000969f, 0.20359692f, 0.22075938f, 0.37157121f, 0.00914304f, -0.06324214f, -0.00574443f, -0.05477089f,
    -0.04158513f, -0.05987414f, -0.02311455f, 0.08035155f, -0.06244952f, 0.14810468f, 0.11558447f, 0.03106162f,
    0.10829996f, 0.09033003f, 0.06101123f, -0.11892545f, 0.00911773f, 0.08449545f, 0.10727625f, 0.10450622f,
    0.14073081f, 0.12992093f, 0.19010593f, -0.18686058f, -0.10219946f, -0.25681034f, 0.19294763f, 0.18052678f,
    0.08448064f, 0.11704894f, -0.18712318f, -0.00807663f, 0.09907244f, -0.01156791f, 0.00821750f, 0.04945027f,
    0.04290524f, 0.06857354f, 0.14318223f, 0.21535507f, 0.20731565f, 0.14541987f, 0.04439843f, 0.02561814f,
    0.00831865f, 0.21092199f, -0.04518938f, 0.08245795f, 0.03450453f, -0.04273005f, -0.05989024f, -0.00343183f,
    -0.42072579f, -0.41912413f, 0.11145157f, 0.14431596f, 0.05904955f, 0.20554604f, 0.04330792f, 0.21312647f,
    -0.06525184f, -0.07603049f, -0.12442316f, 0.02919806f, 0.14135762f, 0.00981931f, -0.08704869f, -0.01128743f,
    0.09547932f, 0.11654773f, -0.01528274f, 0.00079963f, 0.02343830f, 0.09070189f, -0.04834980f, -0.05734630f,
    -0.11645160f, -0.22046754f, -0.00025235f, -0.20132858f, -0.15002970f, 0.01737822f, 0.34699374f, 0.24842308f,
    -0.03944202f, 0.08396240f, 0.13218494f, -0.18326916f, -0.16959746f, -0.09897164f, -0.07867962f, -0.03834237f,
    0.07833473f, -0.01434011f, -0.02034222f, -0.08844580f, -0.16487946f, -0.10444602f, 0.02369246f, 0.08072874f,
    -0.03740400f, -0.00206519f, -0.10197469f, -0.20859070f, -0.11698839f, -0.07508717f, -0.25009936f, -0.17624021f,
    0.06035873f, 0.10823503f, 0.40644738f, 0.13658145f, -0.05646911f, 0.11575972f, -0.24772260f, -0.48849627f,
    -0.41258007f, -0.10816973f, -0.08576445f, -0.08603794f, -0.11518147f, -0.13640594f, -0.21640325f, -0.33987996f,
    -0.29609382f, -0.21716200f, 0.07002245f, -0.00340214f, 0.05770487f, -0.22782834f, -0.28924924f, -0.24267815f,
    -0.25221702f, -0.16424914f, -0.17363916f, 0.04055398f, -0.02286755f, 0.18227413f, -0.15659900f, 0.19269209f,
    -0.00641912f, -0.01159773f, 0.15162511f, -0.16827472f, -0.44761166f, -0.53415334f, -0.55264890f, -0.39796492f,
    -0.40723687f, -0.38872060f, -0.55470014f, -0.45798454f, -0.37914357f, -0.07680854f, 0.04466429f, 0.10006583f,
    0.06750608f, -0.26503971f, -0.18736044f, -0.14792298f, -0.07603955f, -0.10002740f, -0.07188120f, -0.05298193f,
    0.07264026f, 0.28325403f, 0.16662572f, 0.44636810f, 0.08293390f, -0.02910521f, 0.08424325f, -0.18204728f,
    -0.63196856f, -0.58424681f, -0.49904352f, -0.62628585f, -0.47268391f, -0.52581829f, -0.38315144f, -0.36917365f,
    -0.13958620f, 0.24069928f, 0.32409027f, 0.22577851f, 0.07098710f, -0.07696349f, -0.20428455f, -0.04880303f,
    0.06331597f, -0.00835533f, -0.03959288f, -0.05917611f, 0.20921451f, 0.15419196f, 0.34660220f, 0.30097270f,
    0.05614896f, -0.19936140f, -0.15240696f, -0.20540620f, -0.42765331f, -0.45092779f, -0.20943554f, -0.38702846f,
    -0.39868593f, -0.21817844f, -0.17444405f, 0.05478056f, 0.25834075f, 0.34999278f, 0.31312722f, 0.05537491f,
    0.04207738f, -0.12228882f, 0.01972388f, 0.23841143f, 0.07800314f, 0.07919052f, 0.08097405f, -0.05745323f,
    0.06254501f, 0.04694759f, 0.36942208f, 0.20354672f, 0.04262373f, -0.09068558f, -0.20111534f, 0.08295318f,
    -0.09481589f, -0.14967188f, 0.05733089f, -0.07107899f, 0.04407798f, -0.06349622f, 0.07696617f, 0.36334541f,
    0.40936151f, 0.48432076f, 0.31571078f, 0.08605514f, -0.05451843f, -0.02969448f, 0.02472545f, 0.09273282f,
    -0.08685175f, 0.00238554f, 0.13771929f, 0.06485701f, 0.16253629f, -0.08895261f, 0.14603770f, 0.14338766f,
    -0.04480215f, -0.21422175f, -0.17135622f, -0.03487728f, -0.06779543f, -0.01640928f, 0.21748830f, 0.07161015f,
    0.12486798f, 0.26531067f, 0.24593997f, 0.38965482f, 0.44632164f, 0.38431165f, 0.11432798f, -0.00123145f,
    -0.06471895f, -0.01363212f, 0.10581128f, -0.00393170f, 0.05049558f, -0.06910463f, 0.09431860f, 0.22093098f,
    0.20676048f, 0.03601936f, 0.25108850f, 0.02273919f, -0.07426211f, -0.13822304f, -0.17066132f, 0.09790653f,
    -0.10647764f, 0.18424177f, 0.33431220f, 0.17572811f, 0.22379141f, 0.34261245f, 0.33864197f, 0.34418598f,
    0.24777843f, 0.18804389f, 0.09858607f, -0.01991719f, -0.05028357f, -0.18574162f, 0.07054079f, -0.02936021f,
    -0.01081306f, -0.08539711f, 0.09877945f, 0.15846150f, 0.36146641f, 0.31310600f, 0.25937304f, -0.00239731f,
    -0.07777078f, 0.06300731f, -0.25658602f, 0.11153749f, -0.04132652f, 0.10086290f, 0.17752564f, 0.24461028f,
    0.25773320f, 0.23655292f, 0.23397046f, 0.19332314f, 0.22888799f, 0.06289806f, -0.11419515f, -0.13778672f,
    -0.05493829f, 0.02055321f, 0.04993648f, -0.05503581f, -0.02112653f, -0.04593833f, -0.06172325f, -0.05671195f,
    0.26141968f, 0.39144772f, 0.48027959f, 0.35807344f, 0.02331638f, -0.18702456f, -0.07072113f, -0.05713620f,
    0.06861085f, -0.06825640f, 0.09976262f, 0.31237996f, 0.16155221f, 0.30617219f, 0.16926032f, 0.15733473f,
    0.08084431f, -0.03717113f, -0.05021182f, -0.01365181f, 0.07668178f, 0.00504904f, -0.10171733f, 0.00050738f,
    0.04812981f, 0.07421833f, -0.02248345f, 0.03370106f, -0.04056254f, 0.24980959f, 0.32908419f, 0.19879404f,
    -0.08191758f, -0.22155358f, 0.02648704f, 0.06143301f, -0.02412909f, -0.17149724f, 0.11669336f, 0.22504108f,
    0.27133340f, 0.13910952f, 0.02517575f, 0.09436091f, 0.10822868f, -0.01937128f, -0.06421627f, 0.04137024f,
    0.02507756f, -0.05245885f, -0.09651572f, -0.01699853f, -0.03461602f, 0.04646657f, -0.09514577f, 0.03684460f,
    0.07820601f, -0.09292996f, 0.22774577f, -0.05042439f, 0.02310028f, -0.08275566f, 0.10234395f, 0.09928013f,
    0.00890560f, -0.06676186f, 0.07134444f, 0.17620254f, 0.04345229f, 0.05360543f, 0.00852455f, 0.00451991f,
    -0.01800745f, 0.05547475f, -0.00079090f, 0.06033565f, 0.11666484f, 0.09169614f, -0.11420242f, 0.08815200f,
    -0.01115128f, -0.04527613f, -0.04277900f, 0.11200222f, -0.01169952f, 0.05961903f, -0.13856956f, 0.00718213f,
    0.05676302f, 0.09325438f, 0.04095854f, -0.12813428f, 0.07927578f, 0.27681410f, 0.08184457f, 0.09220806f,
    0.02237519f, 0.02648654f, 0.01820848f, 0.00455109f, -0.02458774f, 0.04667945f, 0.01573008f, 0.04638284f,
    0.09780564f, 0.02054765f, -0.10138910f, 0.06921641f, 0.07894133f, -0.09357268f, -0.09648297f, -0.18956816f,
    -0.11453807f, -0.08742896f, -0.16403678f, 0.00314908f, -0.02069618f, -0.06252930f, -0.07625765f, -0.23960224f,
    -0.00417561f, 0.04588980f, 0.05647290f, -0.03502760f, -0.18628715f, 0.01965831f, -0.01656707f, 0.03816370f,
    0.15905620f, 0.06540171f, 0.04490864f, 0.04658782f, 0.02534696f, -0.02954264f, -0.15719284f, -0.03723728f,
    0.04425071f, -0.17740719f, -0.06376934f, -0.31238884f, -0.44846332f, -0.19293395f, -0.11254597f, 0.05681912f,
    -0.03391742f, -0.03756829f, -0.06210892f, -0.21627408f, -0.18976094f, -0.06108968f, 0.02842850f, -0.09159392f,
    -0.16162167f, -0.01325695f, -0.11335770f, 0.11870757f, 0.01343195f, -0.04745080f, 0.01766757f, -0.12598808f,
    -0.19491462f, -0.14597166f, -0.16520767f, -0.07606328f, -0.06279678f, -0.24482553f, -0.39402196f, -0.44622445f,
    -0.14580785f, 0.24653941f, 0.18924095f, -0.06056252f, 0.00157917f, -0.00374904f, -0.19182014f, 0.21022147f,
    0.02109849f, -0.06734677f, -0.01953986f, 0.10607722f, -0.24174733f, -0.19580834f, -0.20759343f, -0.02368790f,
    -0.16297643f, -0.26927888f, -0.20624547f, -0.08732645f, -0.06619092f, -0.09861636f, -0.24894066f, -0.48325986f,
    -0.48759916f, -0.42365506f, -0.51629913f, -0.26532936f, -0.20429410f, 0.01135169f, 0.06467662f, 0.01636370f,
    -0.00732993f, 0.07771464f, 0.08467963f, -0.05036412f, -0.24345274f, -0.20127171f, -0.23861052f, 0.00356280f,
    -0.17854305f, -0.30962273f, -0.11496528f, 0.03715418f, -0.26146954f, -0.09778489f, -0.13260020f, -0.07503680f,
    -0.23737212f, -0.27046040f, -0.32594109f, -0.33393881f, -0.45345756f, -0.47556835f, -0.25650266f, 0.04406952f,
    0.07984575f, 0.09492249f, 0.07177363f, 0.07607134f, 0.02892653f, -0.02435034f, 0.03097944f, 0.00261079f,
    0.04903663f, 0.13024111f, 0.11474916f, -0.07116818f, 0.10258271f, 0.09241641f, 0.33438566f, 0.19752346f,
    0.05745200f, 0.00692301f, -0.04893743f, 0.06014101f, 0.18441626f, -0.01981645f, -0.23018129f, -0.03661186f,
    -0.06019785f, -0.04731720f, -0.08479902f, -0.06652606f, -0.08099327f, 0.02528077f, 0.07973746f, 0.07328900f,
    0.07895362f, 0.07260331f, 0.03921239f, -0.03329330f, 0.07844967f, 0.01256940f, 0.03683408f, 0.08193896f,
    0.01092764f, -0.03667888f, -0.04603046f, 0.03463372f, 0.08411195f, 0.03655266f, 0.00749917f, 0.08367325f,
    0.07439636f, -0.01979171f, -0.05343423f, -0.01644830f, -0.08060618f, 0.00114216f, -0.03030613f, 0.01039245f,
    0.03722687f, -0.07199883f, -0.06840457f, -0.01325334f, -0.00630095f, -0.08286772f, -0.03906233f, 0.00602406f,
    -0.01045274f, 0.02883409f, -0.22067763f, -0.20740227f, -0.14835183f, -0.18436921f, -0.06392214f, -0.21525735f,
    -0.28761840f, -0.36611611f, 0.01886909f, 0.09853756f, -0.26542705f, -0.33847764f, -0.22103384f, -0.21441621f,
    -0.24043857f, -0.11798241f, -0.03695378f, 0.04873934f, -0.01728310f, 0.06633510f, 0.08515767f, -0.01173791f,
    -0.05456905f, 0.06201678f, 0.05019099f, -0.18135853f, -0.25641388f, -0.03401855f, -0.19965944f, -0.31112596f,
    -0.38635349f, -0.03896129f, 0.01122488f, -0.10269403f, -0.04832390f, 0.33798125f, 0.13994750f, 0.28503159f,
    0.25175112f, 0.29147199f, 0.04316819f, -0.15859735f, -0.28117564f, -0.38727975f, -0.21801203f, -0.25576171f,
    -0.21534635f, -0.01484304f, 0.04478567f, -0.04397563f, -0.06129405f, 0.00429216f, -0.01695289f, -0.14172266f,
    -0.19080678f, 0.15500763f, -0.13122609f, -0.11697666f, 0.13777223f, 0.06986880f, 0.09290140f, -0.11844917f,
    0.09730578f, 0.19532998f, 0.05859086f, 0.19908959f, 0.17023650f, 0.29242209f, 0.09382442f, -0.14441155f,
    -0.06108915f, -0.30979347f, -0.21383172f, -0.26406202f, -0.29912478f, -0.17935976f, 0.02660565f, 0.00327140f,
    0.07164939f, 0.00159272f, 0.09590678f, 0.20448746f, 0.22648793f, 0.35652381f, -0.01719996f, 0.06890376f,
    0.20274885f, 0.20730455f, 0.08474839f, -0.00236464f, 0.09190437f, 0.29059339f, 0.12173846f, 0.09604430f,
    -0.01961946f, -0.10438558f, -0.16517921f, -0.33188719f, -0.16369534f, -0.18444857f, -0.29620773f, -0.36524904f,
    0.04473428f, 0.13282363f, 0.07180128f, 0.03374158f, -0.07524402f, 0.03934117f, 0.01547588f, 0.20152839f,
    0.03424754f, 0.26232117f, 0.15185151f, 0.14211218f, 0.00777030f, 0.09642390f, -0.03051706f, 0.04157489f,
    0.15066218f, 0.20057525f, 0.07433287f, 0.15053287f, 0.06028275f, 0.03224861f, -0.04095758f, -0.25092784f,
    -0.22768471f, -0.28632164f, -0.34755310f, -0.39234751f, -0.19821532f, 0.03424682f, 0.02632738f, 0.01816157f,
    0.01510789f, 0.02354404f, 0.18093483f, 0.06355986f, 0.11033431f, 0.12799715f, 0.04834301f, -0.13663213f,
    -0.01591573f, -0.06972291f, -0.20056847f, -0.20573334f, -0.06473605f, -0.03341847f, -0.02234409f, 0.09432833f,
    0.09930734f, -0.02971296f, 0.14768860f, -0.01401603f, -0.25811654f, -0.18335234f, -0.50495356f, -0.33989692f,
    -0.18706131f, -0.15426831f, -0.28017730f, 0.03132455f, -0.06313748f, 0.12479444f, 0.14526333f, 0.00083445f,
    0.21229158f, 0.02206911f, -0.01191146f, 0.01094085f, -0.19880253f, -0.15731010f, -0.13642500f, -0.24170850f,
    -0.15247521f, -0.14710394f, -0.09328479f, 0.01926471f, 0.06242910f, 0.10297108f, 0.21485496f, 0.04175165f,
    -0.31291801f, -0.54142469f, -0.36592713f, -0.16263407f, -0.05738015f, -0.17243248f, 0.03777627f, -0.14168885f,
    0.06215535f, 0.15830353f, 0.07188476f, 0.03208609f, 0.11908560f, 0.05890046f, -0.02632333f, -0.02552377f,
    -0.21842076f, -0.12248378f, 0.01364063f, -0.19312154f, -0.02322544f, -0.04531021f, 0.05494260f, 0.26078695f,
    0.05426567f, -0.03780004f, 0.02023513f, -0.28409055f, -0.37802088f, -0.43427175f, -0.26676750f, 0.00961905f,
    0.03112639f, -0.05813163f, -0.10408960f, -0.18775691f, 0.01393781f, 0.09431181f, 0.01996884f, 0.06437158f,
    0.23874499f, 0.07757089f, -0.07943305f, -0.15727705f, -0.09098917f, -0.03358140f, -0.27193707f, -0.10249545f,
    0.03944897f, 0.33704427f, 0.30920404f, 0.20686585f, 0.01142897f, 0.00714362f, -0.18622155f, -0.31651813f,
    -0.35223457f, -0.26099542f, -0.08455361f, 0.26122382f, -0.10148771f, -0.14337762f, -0.04207180f, -0.21506241f,
    0.05736833f, 0.07872712f, 0.07287399f, 0.14904043f, 0.03796243f, -0.01378309f, -0.07071885f, -0.04335159f,
    -0.15297371f, 0.04534090f, 0.06050020f, 0.19295208f, 0.18664475f, 0.46558133f, 0.38035172f, 0.04188358f,
    -0.02537872f, -0.14551726f, -0.30310497f, -0.28345084f, -0.36985624f, -0.09914981f, 0.19334914f, 0.16141698f,
    -0.21034950f, 0.08373421f, -0.25199321f, -0.08742271f, 0.08507198f, 0.17315483f, 0.30075175f, 0.31274995f,
    0.17023499f, 0.12570764f, 0.04572970f, -0.14141417f, -0.05295422f, 0.07515716f, 0.25284100f, 0.23382162f,
    0.36411354f, 0.39429650f, 0.26939422f, -0.08895810f, -0.15769237f, -0.11573708f, -0.24275616f, -0.33924296f,
    -0.08624560f, -0.13918635f, 0.06002912f, -0.18281566f, -0.28410634f, 0.03157969f, -0.20657019f, 0.30169657f,
    0.10593127f, 0.14677982f, 0.27306518f, 0.16649191f, 0.04287504f, 0.20035926f, 0.12622485f, 0.08514885f,
    0.09771052f, 0.24103953f, 0.28312853f, 0.15300143f, 0.25178900f, 0.03639670f, 0.08490764f, -0.00071839f,
    -0.14430703f, -0.20666023f, -0.13029152f, -0.01579512f, 0.03935664f, -0.06977688f, 0.04247654f, -0.18136601f,
    -0.08346008f, 0.01218304f, -0.00359323f, 0.34511673f, 0.01886681f, 0.13354990f, 0.23513089f, 0.15891182f,
    0.07018309f, 0.13548328f, 0.30919197f, 0.22354089f, 0.23275179f, 0.21273886f, 0.11685711f, -0.01131239f,
    0.06845942f, -0.05681615f, -0.13329419f, -0.03481581f, -0.02997241f, -0.05779703f, 0.00711742f, -0.07416917f,
    0.18263334f, 0.04681665f, -0.02184721f, -0.08745034f, 0.00863171f, 0.08355719f, -0.02411608f, -0.11770840f,
    -0.16016772f, 0.01246525f, 0.38745028f, 0.10226510f, 0.00568594f, 0.03626540f, 0.10945652f, 0.11767187f,
    0.24244677f, 0.22659563f, 0.05153563f, -0.13274899f, -0.20912896f, -0.16874634f, -0.01127875f, -0.04079278f,
    -0.06718826f, -0.03326408f, 0.01107746f, 0.15407041f, 0.09163123f, -0.00197519f, -0.10322433f, 0.03908229f,
    0.03498312f, -0.10027402f, -0.16359177f, -0.06245397f, -0.12505840f, 0.13044469f, 0.43246853f, 0.11162268f,
    0.02206008f, -0.08500411f, 0.09198111f, 0.03957668f, 0.18091336f, 0.19896875f, -0.03972025f, -0.19764870f,
    -0.35162586f, -0.09807210f, 0.04018429f, -0.10288893f, -0.04066269f, 0.03688240f, 0.08402668f, 0.00478657f,
    0.11050906f, 0.03699187f, 0.20788001f, 0.01542755f, -0.12369142f, -0.15918946f, -0.10552583f, -0.01525423f,
    0.09889872f, 0.10928775f, 0.36498645f, 0.02672008f, -0.01008083f, 0.02045670f, 0.11414823f, 0.20106193f,
    0.04213009f, 0.07324191f, -0.00729960f, -0.23817806f, -0.38750243f, -0.06795858f, 0.05696468f, -0.10962384f,
    0.01897758f, 0.03420785f, 0.04520249f, 0.01233815f, 0.08504077f, 0.13848726f, 0.19877528f, 0.14732637f,
    0.12209645f, -0.46537501f, -0.35318196f, -0.26403689f, 0.00122831f, 0.02667166f, 0.27105054f, -0.15894860f,
    0.00005367f, -0.18003033f, 0.01283404f, 0.10014669f, 0.04235525f, -0.06021037f, -0.09111052f, -0.23456694f,
    -0.52498257f, -0.10311244f, 0.00507802f, 0.08241076f, 0.08554472f, 0.01556380f, -0.08765558f, -0.01102948f,
    0.09382751f, 0.11929759f, 0.10477929f, 0.34902176f, 0.07838724f, -0.49340966f, -0.24830501f, -0.20653071f,
    -0.06900770f, 0.10942630f, 0.32365948f, -0.00126613f, -0.13929459f, -0.07481609f, -0.03584632f, -0.09445118f,
    0.04453969f, -0.09160664f, -0.21412359f, -0.41551042f, -0.54754311f, -0.15175454f, 0.01923922f, 0.23178160f,
    0.07128251f, -0.01085079f, 0.07820676f, 0.01920897f, 0.11930922f, 0.18785907f, 0.25654465f, 0.05584284f,
    0.08258505f, -0.25970680f, -0.34325543f, 0.03811228f, -0.05246387f, 0.07800030f, -0.08395915f, -0.14875562f,
    -0.15402438f, -0.00195039f, -0.09571371f, -0.06401581f, 0.10561075f, 0.12432199f, -0.18332872f, -0.36485583f,
    -0.40827590f, -0.01966509f, 0.14889570f, 0.11973948f, 0.18639633f, 0.05547470f, 0.04894383f, 0.15785369f,
    0.16904481f, 0.06095213f, -0.05228022f, 0.17316614f, 0.30350378f, -0.10211188f, -0.46026111f, -0.03809874f,
    -0.07245515f, 0.00031047f, -0.16124079f, -0.39561358f, -0.33351859f, -0.20248693f, -0.10006974f, -0.01349646f,
    -0.06152674f, 0.03079490f, -0.00838450f, -0.13758653f, -0.24576636f, -0.07639050f, 0.14670338f, 0.13412389f,
    0.18352197f, 0.28365719f, 0.22126436f, 0.08311794f, 0.16252550f, 0.08918857f, -0.01824864f, 0.08706497f,
    0.16461881f, -0.21784660f, -0.38006562f, 0.05533908f, 0.00751870f, 0.05009004f, -0.07101824f, -0.35014251f,
    -0.36142761f, -0.15448159f, -0.20668289f, -0.03918595f, -0.01627901f, -0.02314083f, -0.14355454f, -0.22621094f,
    -0.27629343f, -0.06751007f, -0.04562097f, 0.23807907f, 0.15115373f, 0.13972083f, 0.11684986f, 0.16101441f,
    0.12960650f, 0.06282141f, -0.07886368f, -0.21613073f, 0.04994237f, -0.16634634f, -0.29362437f, -0.03850736f,
    -0.05593111f, -0.05939639f, -0.01590027f, -0.14671499f, -0.20493031f, -0.12818171f, -0.15999456f, -0.09589237f,
    -0.08848108f, -0.01430107f, -0.31159228f, -0.22587737f, -0.11504328f, -0.18425852f, -0.17723338f, 0.15904032f,
    0.04394254f, 0.04787158f, 0.16092394f, 0.14670123f, 0.22018895f, 0.09143457f, -0.01101336f, -0.19945642f,
    -0.03018137f, -0.13476661f, -0.24809159f, -0.03826860f, 0.01605033f, 0.06523796f, 0.03447023f, 0.25956702f,
    0.22393066f, -0.12077843f, -0.23346964f, -0.19749109f, -0.15573034f, 0.06692625f, -0.08157101f, -0.08855309f,
    -0.12460969f, -0.24401270f, -0.05406741f, 0.18717989f, 0.17046402f, 0.29635215f, 0.18466383f, 0.20484254f,
    0.02533624f, -0.18075956f, -0.39317912f, -0.50655091f, -0.16378778f, -0.25944376f, 0.19047113f, 0.04398125f,
    0.02740178f, 0.03074102f, 0.00608573f, -0.02282747f, 0.03631374f, 0.04938780f, -0.01018201f, 0.02203394f,
    0.03200258f, 0.00404365f, -0.04168141f, 0.14181674f, -0.26913151f, -0.20058712f, 0.00743982f, 0.05283159f,
    0.12556481f, 0.15244758f, 0.12237485f, 0.12019151f, -0.09228696f, -0.08212608f, -0.12439737f, -0.51189309f,
    -0.14269066f, 0.07624345f, 0.10805952f, 0.08325086f, 0.00043736f, -0.03350238f, -0.02452611f, -0.23729619f,
    0.09754266f, 0.17629710f, 0.05655423f, 0.04941122f, 0.14839368f, 0.03196705f, -0.11952826f, -0.07065850f,
    0.00216185f, -0.05955229f, -0.16267256f, -0.04301259f, 0.00510181f, 0.12497682f, 0.18772142f, 0.27921808f,
    0.17300385f, 0.06902196f, 0.08470908f, -0.26676509f, -0.15422677f, -0.05103122f, 0.06772090f, 0.07820322f,
    0.01288808f, 0.03232490f, 0.06257599f, -0.07093155f, 0.01814633f, -0.19645327f, 0.13046615f, 0.20320711f,
    0.15849592f, 0.20163305f, 0.04134158f, 0.05936576f, -0.09027406f, 0.01702793f, -0.22447006f, -0.08702304f,
    0.00935333f, -0.02009377f, 0.06317320f, 0.16192998f, -0.05198284f, 0.04888663f, 0.06196237f, -0.21383895f,
    -0.09440146f, -0.07401412f, 0.05258846f, 0.00001129f, 0.01126031f, 0.04399777f, -0.03341837f, -0.00547864f,
    0.08270866f, 0.05997988f, -0.16169703f, -0.05524138f, -0.19464232f, -0.06217248f, -0.07872505f, 0.20036191f,
    -0.00900873f, 0.22004314f, -0.08655226f, -0.11455511f, -0.10107380f, 0.01114977f, 0.04309268f, -0.09191130f,
    0.00202668f, 0.26986372f, 0.21445858f, 0.26868793f, 0.02773423f, -0.01423123f, 0.04710638f, -0.05436530f,
    -0.05292270f, 0.03733029f, 0.04834422f, 0.08119420f, 0.02437722f, 0.03047535f, -0.07392650f, 0.02286470f,
    0.06748477f, 0.02471856f, 0.08095757f, -0.02143747f, 0.05362006f, 0.11406733f, 0.00615112f, 0.07559178f,
    -0.04738617f, 0.02151109f, -0.06577471f, -0.07704023f, 0.07457007f, 0.00986374f, 0.08410480f, -0.08387405f,
    0.02287259f, 0.01158382f, -0.01001556f, 0.01946916f, 0.07037476f, -0.06871725f, -0.04574109f, 0.07400415f,
    -0.03023468f, 0.02075914f, 0.22003916f, 0.16392073f, 0.17154862f, 0.20733143f, 0.16030088f, 0.09040483f,
    0.14762361f, 0.31083784f, -0.00019916f, -0.12389415f, 0.40471414f, 0.27592486f, 0.22212297f, 0.22627659f,
    0.27305800f, 0.11031241f, 0.16610859f, 0.10278686f, -0.03182448f, 0.05937938f, 0.01795679f, 0.02710544f,
    0.05268662f, -0.07418581f, -0.05330064f, -0.22112645f, -0.16247763f, 0.02631873f, 0.08339669f, 0.30519935f,
    0.40259197f, 0.34914696f, 0.41735885f, 0.37050357f, 0.37678421f, -0.00379324f, 0.27372152f, 0.11957546f,
    0.09967971f, 0.12529933f, 0.22137344f, 0.04148533f, 0.08620209f, 0.08895176f, 0.00714463f, 0.19231889f,
    0.03956110f, -0.09305270f, 0.07072531f, 0.05388369f, -0.07607574f, -0.02037408f, 0.05551092f, -0.11706208f,
    0.04319362f, 0.10588732f, 0.19527529f, 0.09885724f, 0.30749843f, 0.35779157f, 0.21283638f, 0.36464655f,
    0.35391212f, 0.45008400f, 0.26533130f, 0.26033205f, 0.20879577f, 0.01899705f, 0.09239681f, -0.10632201f,
    -0.06673494f, 0.23687229f, 0.41756013f, 0.39859429f, 0.18715061f, 0.13049498f, 0.18260066f, 0.00585052f,
    -0.07895872f, -0.07958576f, -0.03097597f, -0.12219631f, -0.13704900f, -0.35411635f, -0.15601303f, -0.10028496f,
    0.01220476f, 0.09644166f, 0.15147585f, 0.25758162f, 0.25021186f, 0.07992031f, 0.11957701f, 0.08916909f,
    0.12699680f, 0.17199875f, 0.12185287f, 0.03760582f, -0.00795856f, 0.02944778f, 0.12192529f, 0.07332232f,
    0.33448651f, 0.21253800f, 0.31228724f, 0.21850587f, -0.03295155f, -0.04147943f, 0.07484848f, -0.19315650f,
    -0.12817927f, -0.54189354f, -0.37101772f, 0.03096764f, 0.08025841f, 0.03817105f, -0.10581128f, -0.01423451f,
    0.05204747f, -0.06091190f, 0.03382561f, -0.06734986f, 0.04186342f, 0.11169465f, 0.00423656f, -0.00101215f,
    0.14052759f, 0.03592535f, -0.05393396f, -0.11724476f, 0.09334823f, 0.23917934f, 0.28056005f, 0.34620339f,
    -0.03093095f, 0.06481685f, -0.22758418f, -0.00423112f, -0.00922740f, -0.07330422f, -0.22140090f, 0.04794184f,
    -0.01503487f, -0.03835851f, -0.07049622f, -0.03834831f, 0.06013548f, -0.04438878f, -0.09761755f, -0.14246556f,
    -0.21012187f, -0.19792815f, -0.32098207f, -0.14602318f, -0.07293502f, -0.19738665f, 0.02229644f, 0.10313932f,
    0.09743197f, 0.35487488f, 0.05490896f, 0.31343237f, 0.04818062f, -0.06863470f, -0.08340052f, 0.03238942f,
    0.17960529f, -0.03172506f, -0.06132095f, -0.00572044f, 0.20410538f, 0.07942091f, 0.00877536f, -0.03543430f,
    -0.18033890f, -0.11190325f, -0.11976111f, -0.06714749f, -0.24437073f, -0.25630078f, -0.15045901f, -0.21139973f,
    -0.10811114f, -0.10920608f, -0.01289911f, 0.04448088f, 0.32296395f, 0.37854165f, 0.11989017f, 0.37077475f,
    -0.02106359f, -0.13832228f, -0.07363723f, 0.15628017f, 0.01586899f, -0.09569293f, -0.14162831f, 0.01860609f,
    -0.11492936f, 0.12046710f, 0.10153575f, -0.05407613f, 0.00466640f, -0.02994157f, -0.12340037f, -0.13494703f,
    -0.05094591f, -0.06443094f, -0.08778321f, 0.12814718f, 0.08597823f, -0.03518128f, 0.09415684f, 0.12753890f,
    0.19554767f, 0.33088920f, 0.33466679f, 0.33128956f, -0.04532086f, -0.29122463f, 0.14246982f, 0.11866558f,
    -0.12862268f, 0.07729752f, 0.01851711f, 0.02238050f, 0.12683521f, 0.00066447f, 0.09071204f, -0.03201003f,
    -0.02013702f, -0.10060829f, -0.14064527f, -0.14505458f, -0.03413979f, 0.02202990f, -0.01525720f, 0.09962378f,
    0.08973115f, 0.17776731f, 0.10909896f, 0.28697482f, 0.16362694f, 0.62212181f, 0.43108073f, -0.18324533f,
    -0.09532641f, -0.17953503f, -0.09538439f, 0.00822284f, 0.21628988f, 0.04803545f, 0.07565007f, 0.05345291f,
    0.13930716f, -0.03748320f, 0.06487823f, 0.01435748f, 0.06111271f, -0.12578571f, -0.05731642f, -0.21073093f,
    -0.14626870f, -0.05510665f, 0.16055201f, 0.14563473f, 0.09332726f, 0.08993923f, 0.09125780f, 0.11704999f,
    0.13412552f, 0.17467023f, 0.34929007f, -0.06706243f, -0.06517173f, -0.12601152f, -0.26882458f, 0.19983150f,
    0.20498872f, 0.13997458f, 0.02995427f, 0.09473175f, 0.10849430f, 0.13403727f, 0.04046642f, -0.06432085f,
    0.00286770f, 0.08151490f, -0.16051976f, -0.23595586f, -0.19796878f, -0.21924719f, -0.04637729f, 0.19914852f,
    -0.05410660f, 0.00588751f, -0.08888660f, -0.06667767f, 0.31586841f, 0.34742174f, 0.43625587f, -0.09603786f,
    -0.03438013f, 0.02156695f, -0.09486728f, 0.16335192f, 0.03332210f, 0.09063110f, -0.02562624f, 0.20091921f,
    0.07441147f, 0.05055765f, 0.01920817f, 0.19729690f, 0.22273648f, 0.29321554f, -0.01280103f, -0.17992114f,
    -0.25780725f, -0.12035968f, -0.15631069f, -0.01273726f, -0.03996845f, 0.05567987f, -0.10702438f, -0.14083955f,
    0.22654882f, 0.11281171f, 0.00569430f, -0.21813555f, -0.03941223f, 0.02591946f, -0.25401065f, 0.00894967f,
    -0.26866364f, 0.04021668f, 0.14029762f, 0.11772515f, 0.10934570f, 0.21149608f, 0.08484443f, 0.18462668f,
    0.29229102f, 0.18255056f, -0.00071418f, 0.00449989f, -0.10855916f, -0.15726985f, -0.14845604f, -0.03709772f,
    -0.10977218f, -0.01997937f, -0.09764168f, -0.09639423f, -0.02125980f, -0.01668269f, 0.06702942f, 0.28773445f,
    0.23210134f, -0.18580791f, -0.30097079f, -0.20924771f, -0.27364969f, -0.14288683f, -0.05376652f, -0.04022070f,
    -0.06349020f, -0.06149866f, 0.05283499f, 0.07024635f, 0.08820163f, 0.14422485f, 0.14361873f, 0.11614761f,
    -0.05905998f, -0.07949552f, -0.10317913f, -0.17711359f, -0.11636721f, -0.08627173f, -0.23079893f, -0.24591915f,
    -0.27918038f, -0.00201763f, 0.28580195f, 0.23083405f, 0.12825570f, -0.07756831f, 0.05119451f, -0.16830811f,
    -0.23492156f, -0.20441292f, -0.00907610f, 0.07589456f, -0.01251471f, -0.07421949f, -0.09353649f, 0.00562590f,
    0.06677780f, 0.22488602f, 0.29572523f, 0.15887266f, 0.13734378f, -0.12176267f, -0.07481829f, -0.17176788f,
    -0.19146429f, -0.25439397f, -0.17205767f, -0.17538868f, -0.02586180f, 0.26858771f, -0.06177199f, 0.05827733f,
    -0.14064786f, -0.12779251f, -0.02466509f, 0.07426920f, -0.16845849f, -0.04847488f, -0.06063744f, -0.07607340f,
    -0.15889217f, -0.09748647f, -0.05980600f, 0.01849663f, 0.11679919f, 0.23235123f, 0.23369418f, 0.24181174f,
    0.08781271f, 0.05120852f, -0.07711960f, -0.11750966f, -0.22388229f, -0.23820812f, -0.19931172f, -0.03411748f,
    0.07506202f, 0.39373219f, 0.36673316f, 0.15956870f, -0.07067742f, -0.24111654f, -0.04413723f, 0.26529247f,
    0.11879712f, 0.03913392f, 0.00781037f, -0.18992460f, -0.12517451f, -0.24725428f, -0.10281696f, 0.09452906f,
    0.12302013f, 0.27211076f, 0.07320984f, 0.08576332f, 0.13000932f, 0.01520274f, -0.08632889f, 0.00034569f,
    -0.13054457f, 0.01761386f, 0.07955972f, 0.16506498f, 0.13359509f, 0.12721166f, 0.01844771f, 0.24255134f,
    -0.23234254f, -0.14205250f, -0.20080566f, 0.04584830f, 0.11867929f, 0.08005432f, 0.01622740f, -0.04512459f,
    -0.18215223f, -0.16183667f, 0.03515297f, 0.08213315f, 0.33747175f, 0.24005666f, 0.01455448f, 0.04068392f,
    0.00072512f, -0.04362981f, -0.04981415f, -0.18865983f, -0.13447718f, -0.04201958f, 0.07770390f, 0.21040945f,
    0.12416534f, 0.20290720f, -0.33816883f, 0.04605048f, 0.00427646f, -0.08462030f, -0.04818991f, -0.06154111f,
    -0.01696406f, -0.00845669f, -0.13727826f, -0.01374082f, -0.04539802f, 0.02112349f, 0.15196916f, 0.20772576f,
    0.06521818f, 0.17273903f, -0.04340136f, 0.04485889f, 0.07364316f, 0.05931213f, -0.01101094f, -0.14440405f,
    -0.09106771f, 0.12658046f, 0.18597500f, 0.27953863f, -0.07989407f, 0.09327628f, -0.03365697f, -0.21135105f,
    -0.04932819f, -0.08716506f, 0.09233880f, -0.00393689f, -0.13830309f, -0.03157128f, -0.03991706f, 0.13315377f,
    0.12789591f, 0.06200988f, 0.13059744f, 0.11477861f, 0.14142129f, 0.05790317f, 0.06458931f, 0.18103354f,
    0.00828829f, 0.00311102f, 0.14683394f, -0.07167114f, 0.17987150f, 0.26883706f, 0.30489400f, 0.30793208f,
    -0.23636600f, 0.12226640f, -0.10906833f, -0.08120980f, -0.14670157f, 0.08796486f, 0.07074071f, -0.00520184f,
    -0.23696813f, -0.27308539f, -0.02728379f, 0.01404472f, 0.03581159f, 0.02813374f, -0.06682438f, 0.09333179f,
    0.00359748f, 0.28451541f, 0.14484607f, 0.09403024f, 0.12901558f, 0.13659574f, 0.01111341f, 0.08219334f,
    0.10856081f, 0.11653842f, 0.21327020f, 0.28550157f, -0.05101485f, 0.13766791f, 0.22936888f, -0.06493527f,
    -0.09587929f, -0.10481802f, 0.13456900f, 0.17164022f, -0.13099578f, -0.27631617f, -0.22349289f, -0.03292486f,
    -0.01237039f, 0.02584547f, -0.04722051f, 0.05958399f, 0.10444181f, 0.09733424f, 0.14195475f, 0.08005418f,
    0.07050662f, 0.11184099f, -0.04266382f, 0.13888322f, 0.05472864f, 0.12391534f, 0.14528193f, 0.09615590f,
    0.06580903f, -0.09500282f, -0.05461996f, -0.04881270f, 0.08328602f, 0.06828284f, 0.04968582f, 0.25758919f,
    0.26422220f, -0.10994382f, -0.26611367f, -0.17446768f, -0.00843265f, -0.09514786f, -0.12309831f, -0.07367686f,
    0.12610547f, 0.14280640f, -0.00266982f, 0.08466726f, 0.08553005f, 0.07813469f, 0.14459263f, 0.10847590f,
    0.17903483f, 0.13564359f, 0.20832303f, 0.24758555f, -0.00459125f, 0.05228483f, -0.20125832f, 0.01818357f,
    -0.04108970f, -0.05823090f, -0.01960670f, -0.02819137f, -0.23400882f, -0.25035655f, -0.27972391f, -0.30656046f,
    0.03579271f, 0.13465041f, 0.04648304f, 0.09882092f, 0.13138674f, 0.18588930f, 0.25533035f, 0.09102040f,
    0.29094172f, 0.17118181f, 0.19044894f, 0.24850437f, 0.09542548f, 0.08623555f, 0.22626974f, -0.00288611f,
    0.11809651f, 0.07539404f, 0.04723863f, -0.01549059f, 0.01436689f, -0.02223995f, -0.14316998f, -0.13494313f,
    -0.28982607f, -0.30032608f, -0.06120575f, -0.22385816f, -0.22492684f, -0.18096489f, 0.15063387f, 0.03966150f,
    0.00951407f, -0.01489784f, 0.06038135f, 0.20891209f, 0.24774668f, 0.08448876f, 0.09521098f, 0.19808108f,
    0.14948845f, 0.24804133f, 0.21923861f, 0.14209597f, 0.11355071f, 0.02201458f, 0.11496693f, 0.00671204f,
    -0.04049895f, 0.05198450f, 0.01652864f, -0.12015592f, -0.25774682f, -0.08569802f, -0.23800284f, -0.26863045f,
    -0.06917454f, -0.33844537f, -0.27771151f, -0.09137231f, 0.00094544f, -0.15254332f, -0.26521632f, -0.26674956f,
    -0.15475276f, -0.08682129f, -0.17335922f, -0.13388611f, -0.31629980f, -0.17608246f, -0.21144415f, -0.12045807f,
    -0.07865051f, -0.02404367f, 0.06701388f, 0.04490670f, 0.00600459f, 0.04247358f, 0.00442728f, 0.08273970f,
    0.07939467f, 0.02625006f, 0.04597443f, -0.04856942f, 0.03074568f, -0.14154375f, -0.35935077f, -0.42856112f,
    -0.44115564f, -0.31686327f, -0.61746925f, -0.41429815f, -0.44921556f, -0.44051844f, -0.30702350f, -0.41148746f,
    -0.35227588f, -0.27608323f, -0.23525110f, 0.03967390f, -0.06567793f, -0.02309136f, -0.07237697f, 0.06332325f,
    0.01478819f, 0.04948657f, 0.00453807f, 0.08491310f, -0.04384532f, -0.04214896f, -0.06641378f, -0.03089766f,
    0.02743559f, 0.05456712f, -0.04796687f, -0.06632487f, -0.08287315f, 0.04027419f, 0.12486839f, 0.11266772f,
    0.06351750f, 0.01620716f, 0.08348035f, 0.01467409f, -0.04293782f, 0.01213773f, 0.06726568f, -0.04248518f,
    0.01187176f, 0.05022401f, 0.00543381f, -0.05530706f, 0.04371957f, -0.07046080f, 0.07194180f, 0.00404184f,
    0.06337728f, -0.09481009f, -0.17891344f, -0.10854271f, -0.09585267f, -0.23881093f, -0.28298569f, -0.27020633f,
    -0.23563758f, -0.11654623f, -0.14360453f, -0.37963101f, -0.09876876f, -0.20249511f, -0.34028783f, -0.31700411f,
    -0.36938456f, -0.30528548f, -0.19230705f, -0.10944366f, 0.07171606f, 0.07700578f, 0.00118082f, 0.07054437f,
    -0.03630500f, 0.00448959f, 0.02861398f, -0.19626468f, -0.25185633f, -0.10733468f, -0.15403603f, -0.23186277f,
    -0.26054889f, 0.07980890f, -0.19053923f, -0.25044486f, -0.13648841f, -0.29165190f, 0.01759383f, -0.11275025f,
    -0.21897742f, -0.06920490f, -0.12155837f, -0.30232334f, -0.17770304f, 0.16221169f, -0.00235084f, -0.27020451f,
    0.19453932f, 0.16323975f, 0.03643394f, 0.07857729f, -0.05279572f, -0.07415754f, -0.05429788f, -0.28670755f,
    -0.24387422f, -0.03083652f, -0.10070819f, -0.18365468f, -0.14944533f, -0.09114099f, -0.21958680f, -0.07222382f,
    -0.19977197f, -0.28603882f, -0.10676737f, 0.01502066f, -0.01971474f, -0.00241799f, -0.15726845f, -0.16522156f,
    -0.22902338f, 0.19298202f, 0.49681839f, 0.18319139f, 0.03857872f, 0.02426826f, 0.16583362f, 0.08350212f,
    0.07102195f, -0.05042936f, -0.15599492f, -0.22122298f, -0.27394477f, -0.09531778f, 0.05200560f, -0.08652613f,
    -0.13971573f, -0.15936059f, -0.25276619f, -0.06901366f, -0.01435555f, 0.02625160f, 0.09154794f, 0.00626015f,
    -0.05874231f, 0.11598241f, -0.00032585f, -0.12125856f, -0.02504651f, 0.01523153f, -0.04492239f, 0.18885745f,
    0.38229814f, 0.41627371f, 0.27561614f, 0.28805539f, -0.04697639f, 0.04243346f, -0.14589244f, -0.28280339f,
    -0.22741190f, -0.29116628f, -0.15264995f, -0.18619433f, -0.07193153f, 0.04390706f, 0.01822954f, 0.18193513f,
    0.19863780f, 0.21692573f, 0.18167242f, 0.07069018f, 0.04622891f, 0.12477940f, 0.04625726f, -0.08857751f,
    -0.01239972f, -0.06515323f, -0.10379691f, -0.10806915f, 0.07657469f, 0.44673833f, 0.20301759f, 0.34639448f,
    0.07967754f, -0.07054511f, -0.10062268f, -0.18698139f, -0.04918637f, -0.12531498f, -0.26978171f, -0.12492846f,
    0.03279312f, -0.05352432f, -0.05633493f, 0.13983512f, 0.20725805f, 0.13992250f, 0.07477845f, 0.11146408f,
    0.11748054f, 0.14085594f, -0.03085217f, 0.11112679f, 0.07896138f, -0.06482226f, 0.01165785f, -0.08715615f,
    -0.07235288f, 0.20504917f, 0.12250816f, 0.18173113f, 0.05793075f, -0.36409304f, 0.08474675f, -0.16670698f,
    -0.20782070f, -0.18752526f, -0.13592699f, -0.16762421f, 0.05573836f, -0.02307147f, 0.01149962f, 0.03873282f,
    0.05903937f, 0.11635851f, -0.01011159f, 0.17657037f, 0.10794834f, -0.00673909f, -0.05173924f, 0.02733865f,
    0.03611995f, 0.09107105f, -0.00164667f, -0.02210162f, 0.09075328f, 0.24372572f, 0.17009030f, 0.10327633f,
    -0.07244525f, -0.18786749f, -0.11516610f, -0.06184529f, -0.12428890f, -0.10675107f, 0.03087054f, -0.05486733f,
    0.00354892f, 0.06724548f, 0.03501904f, -0.00230788f, -0.02373386f, -0.02347871f, -0.10491388f, 0.05444168f,
    0.05621532f, -0.08213681f, 0.04973695f, 0.09554421f, -0.07594754f, 0.00806254f, -0.07043197f, 0.10755849f,
    0.15547846f, 0.29181650f, 0.26167226f, 0.01973021f, 0.04632533f, -0.22983079f, -0.07403593f, 0.00654247f,
    -0.20500758f, -0.02661879f, 0.01473303f, -0.12100613f, -0.05204859f, 0.00371195f, 0.10866317f, 0.02222365f,
    -0.02782127f, -0.08291204f, -0.00049792f, 0.02199615f, -0.12531178f, -0.05705886f, -0.06193620f, 0.08062536f,
    0.09203599f, 0.10044087f, -0.03470928f, 0.08050229f, 0.13231847f, 0.17645505f, 0.31355262f, -0.38277680f,
    0.02856637f, -0.11436366f, -0.18307976f, -0.16399918f, -0.09821956f, 0.16482145f, 0.08543219f, -0.01640701f,
    0.06090861f, 0.14255713f, 0.03131397f, 0.09214176f, 0.05021340f, -0.17963015f, -0.02816505f, -0.09657080f,
    -0.14903605f, -0.05751313f, 0.08442099f, 0.07255231f, 0.01538149f, -0.03720411f, -0.06170027f, 0.12093261f,
    0.07672484f, 0.07018849f, -0.16405763f, -0.08258625f, -0.01388071f, -0.14531529f, -0.15631840f, -0.28377301f,
    -0.14645901f, 0.14538561f, 0.18484050f, 0.21074922f, 0.26415253f, 0.34406063f, 0.14257923f, 0.15061507f,
    0.22760117f, -0.02990943f, -0.04322217f, 0.00569930f, -0.02868868f, -0.07622255f, -0.05235490f, 0.05318396f,
    0.05997506f, 0.07922865f, -0.07224865f, 0.07852345f, 0.08194400f, 0.16930087f, 0.09578120f, -0.13058831f,
    -0.00774215f, -0.06265052f, -0.08969693f, 0.02362775f, -0.02526146f, 0.13724805f, 0.10710144f, 0.17966552f,
    0.26781502f, 0.17396760f, 0.16574046f, 0.13109434f, 0.09886624f, -0.02517259f, -0.12292887f, -0.01985727f,
    -0.03567360f, -0.04650068f, -0.06343074f, 0.15528375f, 0.19095202f, 0.22210810f, 0.04810955f, 0.27998200f,
    0.21483196f, -0.01829122f, -0.02088178f, -0.36760250f, -0.21157695f, 0.02188098f, -0.20684373f, 0.04424648f,
    0.06423093f, 0.11681789f, -0.06472661f, 0.13617142f, 0.13384093f, 0.11608366f, 0.23075587f, 0.25254491f,
    0.03481574f, -0.03193114f, -0.12688918f, 0.11239757f, 0.11179826f, -0.07124454f, -0.00983946f, 0.21440887f,
    0.31121883f, 0.20632665f, 0.22626431f, 0.06873534f, -0.12637952f, -0.00080363f, 0.20616436f, 0.11018354f,
    -0.19776040f, -0.18565042f, -0.29758430f, 0.01830167f, 0.20235997f, -0.09017061f, -0.00837177f, 0.10242553f,
    0.12775838f, 0.01376592f, 0.18748146f, 0.11861473f, 0.00376885f, -0.08111668f, -0.01538562f, 0.09878913f,
    0.17683710f, 0.23734374f, 0.15860356f, 0.27161497f, 0.22164166f, 0.01117749f, 0.08653135f, -0.15382579f,
    -0.42922980f, 0.08933036f, 0.13059676f, 0.12489709f, -0.23497038f, -0.15976165f, -0.41573790f, 0.08574810f,
    0.08855817f, -0.13979828f, 0.11947617f, 0.14212537f, 0.08398876f, 0.09924264f, 0.12947316f, 0.01182624f,
    -0.06939626f, -0.10901131f, -0.00751018f, 0.17122637f, 0.21542624f, 0.21504766f, 0.14317016f, 0.21597271f,
    0.01902581f, 0.06831439f, -0.15135022f, -0.33137894f, -0.44696885f, 0.08865978f, 0.24715930f, 0.18168548f,
    0.03011640f, -0.10930837f, -0.26055366f, -0.01787384f, -0.10615939f, -0.01842648f, 0.24564476f, 0.17019373f,
    0.14889678f, 0.07804406f, 0.09643853f, -0.04494264f, 0.00322697f, -0.04130058f, -0.01160891f, 0.08924571f,
    0.22579792f, 0.28859398f, 0.14855993f, 0.01141948f, -0.03777861f, -0.04092420f, -0.20738608f, -0.23386057f,
    -0.40166003f, 0.21817297f, 0.13165331f, 0.03543924f, 0.00802489f, -0.26959017f, 0.02884345f, -0.19569589f,
    -0.13402714f, -0.00736479f, 0.21387534f, 0.14836434f, 0.07809538f, 0.25034884f, 0.09388518f, 0.06654651f,
    0.11579323f, 0.13533339f, 0.03813742f, 0.20581689f, 0.18648940f, 0.07185294f, -0.00650308f, -0.02132766f,
    -0.02672863f, -0.06639270f, -0.15412687f, -0.32848963f, -0.23142052f, 0.13279182f, -0.00014342f, -0.10366639f,
    -0.01350554f, -0.11952227f, -0.03578842f, -0.18974012f, 0.04722035f, 0.09607311f, 0.18404444f, 0.17578767f,
    0.05072374f, 0.08874583f, 0.09602357f, 0.21406034f, 0.10934202f, 0.16896899f, 0.20670277f, 0.05418359f,
    -0.05532264f, 0.00990294f, -0.10845909f, -0.00530002f, -0.00119771f, -0.16136406f, -0.16062461f, -0.09941150f,
    0.02781902f, -0.12024022f, -0.10460047f, 0.10316633f, -0.04189631f, -0.32946563f, -0.10869658f, -0.03292507f,
    -0.03449190f, -0.04589903f, 0.04752846f, 0.11428426f, 0.16971903f, 0.13179462f, 0.12159559f, 0.03579349f,
    0.09571669f, 0.01591405f, 0.00389323f, 0.04525363f, -0.04092268f, -0.11801749f, -0.06512573f, -0.07868875f,
    -0.10419590f, -0.10859206f, -0.12752262f, -0.06377883f, -0.10869192f, -0.12617181f, 0.03699542f, -0.00895137f,
    -0.03589848f, -0.32823899f, 0.10813047f, -0.13737735f, -0.17183691f, 0.03998332f, 0.09307995f, -0.01824454f,
    -0.03564165f, -0.03386999f, -0.02424407f, 0.03062363f, -0.04271584f, -0.08223172f, -0.02877087f, -0.11504456f,
    -0.07243630f, -0.13866358f, -0.16759709f, -0.02133926f, -0.06159973f, -0.18992923f, -0.09136654f, 0.00199203f,
    0.00067873f, 0.06097292f, -0.03177216f, 0.06445752f, -0.03497754f, -0.06586542f, 0.14468560f, -0.12823470f,
    -0.14449385f, 0.03391894f, -0.04340500f, -0.16812707f, -0.06042371f, 0.04078323f, -0.03387357f, -0.02975594f,
    -0.03032921f, 0.05153847f, -0.06705453f, -0.14086714f, -0.00924156f, -0.05499435f, -0.14688244f, -0.17902285f,
    -0.10313240f, -0.14538349f, -0.03448145f, 0.14711440f, 0.23777527f, -0.05595310f, -0.17262569f, -0.07713443f,
    -0.11518494f, -0.02941364f, 0.06860381f, -0.03422488f, -0.04936805f, -0.23170963f, -0.12334271f, -0.06588381f,
    0.01503577f, 0.04108937f, 0.00277856f, 0.11169672f, 0.06903692f, -0.05429691f, -0.11169207f, -0.11822064f,
    -0.02899876f, -0.06616027f, -0.12850106f, -0.05217897f, -0.12340973f, 0.00326129f, 0.09238954f, 0.17107129f,
    0.40761480f, 0.00963581f, -0.33587468f, 0.06325917f, 0.04474875f, -0.07776791f, -0.12432920f, 0.03741133f,
    -0.00345481f, -0.11862916f, -0.14596084f, -0.01483470f, 0.07989985f, -0.11677703f, -0.14621593f, -0.08775800f,
    -0.10821112f, -0.13976623f, -0.00354269f, -0.01303439f, -0.03458506f, -0.06188627f, 0.03726162f, 0.18323441f,
    0.06924826f, 0.30255976f, 0.28960866f, 0.23902181f, 0.27103922f, 0.00373278f, -0.43708032f, -0.04615051f,
    0.08352982f, 0.02216387f, -0.10809522f, -0.28944007f, -0.22170860f, -0.07411758f, -0.11300559f, 0.06295490f,
    0.03940452f, -0.03914534f, 0.04624540f, 0.12140480f, 0.06232829f, 0.05135265f, 0.01801614f, 0.00921594f,
    0.02241247f, -0.11366892f, 0.18281722f, 0.22262532f, 0.20591488f, 0.08044000f, 0.10054021f, 0.18706580f,
    0.23429562f, 0.10016393f, -0.17754604f, -0.03955735f, -0.03216504f, 0.04593269f, 0.07619226f, 0.17405619f,
    -0.05449655f, 0.01871900f, 0.08457951f, 0.19276217f, -0.11192926f, -0.11137550f, 0.02469959f, 0.04220632f,
    -0.13884953f, -0.12327974f, 0.12158936f, 0.18371628f, -0.02023330f, 0.04749960f, 0.14736566f, -0.24463643f,
    0.10418180f, 0.09085374f, -0.17710252f, 0.02990220f, -0.10320538f, 0.08249187f, -0.02888850f, 0.01919829f,
    -0.06004436f, -0.02957795f, -0.00410056f, 0.08077849f, 0.32310557f, 0.25716797f, 0.09344614f, 0.03962021f,
    0.25875226f, 0.19187242f, -0.01303191f, 0.02186188f, 0.13906808f, -0.03441833f, 0.02612376f, -0.11782715f,
    -0.20961204f, -0.00998510f, -0.01424946f, -0.15424903f, 0.01464511f, -0.09266473f, -0.15832034f, 0.37789270f,
    0.26408312f, 0.01897520f, -0.00400989f, 0.01862861f, -0.02686064f, -0.01858044f, 0.00073898f, 0.03263133f,
    -0.20043157f, -0.20177384f, 0.05591790f, 0.00496310f, 0.07477603f, -0.20116806f, -0.28600457f, 0.11676878f,
    0.07710857f, -0.12226573f, 0.02846506f, 0.15021867f, 0.08873502f, 0.02212433f, 0.21341862f, 0.12962113f,
    0.14332777f, -0.13886298f, -0.15460594f, -0.21780431f, -0.02538831f, 0.02798004f, 0.07523415f, 0.07060438f,
    0.03348138f, -0.05586632f, 0.00483540f, 0.08160389f, -0.01135401f, 0.02443461f, 0.06816385f, -0.02450974f,
    0.07380836f, 0.02238994f, 0.02477358f, -0.03642556f, 0.08692766f, 0.05198364f, -0.04321142f, 0.06009421f,
    -0.05277918f, 0.01314323f, -0.01634675f, 0.05962294f, -0.01038587f, 0.04544853f, -0.02305996f, 0.08192416f,
    -0.04976357f, 0.06734239f, 0.08472792f, -0.05111808f, 0.03577252f, -0.08053491f, 0.02993760f, -0.02059467f,
    -0.00132452f, -0.05656170f, 0.08545798f, 0.24642237f, 0.12084136f, 0.19004586f, 0.11512209f, 0.16590661f,
    0.11656260f, 0.23736691f, -0.07218102f, 0.04459577f, 0.20779148f, 0.34348184f, 0.28021172f, 0.27196226f,
    0.19619572f, 0.09699665f, 0.06018529f, 0.15835704f, -0.07560094f, 0.01781395f, 0.02914410f, -0.05555981f,
    0.03160389f, -0.00945431f, -0.01767760f, 0.05490306f, 0.15851887f, 0.09699946f, 0.18808670f, 0.23569830f,
    0.30197436f, 0.10541031f, 0.25292185f, 0.30505624f, 0.19964583f, -0.02916056f, 0.46286246f, 0.30403185f,
    0.02263333f, 0.04196249f, -0.03909152f, -0.05460196f, -0.04302506f, 0.03430643f, 0.04417084f, 0.02192058f,
